-0.1566769 0.30397066 -0.2517372 0.6844371 0.21285157 -0.16574943 -0.7574768 -0.098281205 0.6230496 1.0269105 0.0046304725 -0.013989142 -1.0358936 0.13065404 -0.15180403 0.048830356 -0.1916233 0.78780603 0.19650422 -0.17749342 0.23016447 0.10284261 -0.59520775 0.7919298 -0.18109062 0.08723267 0.44050512 -0.5433341 0.47934255 0.12129555 -0.43170854 0.8130654 -0.061875176 0.17365777 1.0415195 0.16278355 0.1762787 -0.15731001 -0.054243878 0.10269683 0.2542329 -0.23459949 -0.46807337 -0.277727 -0.90261674 -0.55396515 -0.0044215545 -0.81949484 0.20422329 -0.4844211 0.6910139 0.8163523 -0.9697855 0.47800174 -0.44374385 0.5095828 0.85364664 0.6843372 0.41971356 0.014392431 -0.1481749 -0.25983593 -0.5690323 0.13048309 -0.65088934 -0.45702332 0.39735276 -0.043207645 -0.03566857 -0.077101275 -0.13727364 -0.26620886 -0.45754212 0.22488722 0.5842377 0.5284413 -0.5230299 0.4908985 -0.31122512 0.13820115 -0.28327382 -0.17524615 -0.4102467 0.24150221 -0.05454994 -0.19526893 0.38301587 -0.15583675 0.20979342 0.47034988 0.2336375 -0.13177289 0.09847128 -0.27333024 0.23532839 -0.13623844 0.21271439 0.0072825025 0.045967273 0.06778407 0.13015552 -0.15292068 0.07143501 0.14397599 -0.22266398 -0.32845515 0.7224011 0.32688463 -0.52185374 0.1595012 0.45351335 -0.24766123 -0.5900667 -0.19878791 0.19100465 -0.376377 0.26480517 -0.04982641 0.057551287 0.3394056 -0.086941466 0.40885735 0.4656201 -0.912871 0.20124188 0.59471667 0.6295501 -0.42359695 0.77802294 0.40115905 0.38830158 0.42936897 -0.19391531 -0.09287265 0.8450658 -0.47313124 0.8069189 0.2767436 0.015365393 0.11031602 0.51658356 -0.021097118 -0.80075085 -0.67835927 1.0239562 1.0163493 0.9909754 1.033715 1.0183136 1.0493195 1.0353315 0.9797169 1.0057256 1.009806 0.96999645 0.9690564 1.0042152 0.96608776 0.9815096 1.0109584 0.0036139523 -0.058976997 -0.02672248 0.0194201 0.0034151191 0.0493425 0.014683423 0.00538861 0.047735695 0.052911803 -0.0019132926 0.0284051 0.002683233 -0.0068686106 0.016793052 -0.009619668 0.22522691 0.30051687 0.4632951 0.96602917 -0.8209116 -0.3556285 0.5852124 -0.60759765 0.2104001 0.1605129 0.15253188 0.41485047 -0.48321047 0.5580529 1.4660842 -0.11793827 0.008613629 0.027354658 0.041767396 0.103596374 0.09113533 0.039430358 0.054541998 0.048688397 0.01766823 0.02561044 0.0030438863 0.020262096 0.028612074 0.0683599 0.20879409 0.04063108 0.12620133 0.07532087 0.22514331 0.114303015 0.23887621 -0.08204205 -0.08539637 -0.005238682 -0.13375606 -0.052059043 -0.10881126 -0.12926589 -0.09914243 0.045843255 0.07846924 -0.15967804 -0.038885728 0.032452624 -0.10406789 -0.1251084 -0.1626154 -0.077554345 0.033127856 0.08619912 0.087789215 -0.060810544 -0.049942028 -0.0030165974 -0.12070497 0.052248638 -0.06297189 -0.07753556 -0.016956167 0.09351795 -0.047060423 0.12233761 -0.04327 0.01604611 -0.08903809 0.012513736 0.01280552 -0.18326522 -0.06603888 0.059827045 -0.030756896 0.11081588 -0.11430208 0.12721421 -0.032893267 0.09104079 -0.22225972 -0.08576667 0.14603806 -0.114836335 0.17534441 0.086094305 0.073797695 0.03581316 -0.262237 -0.18068688 0.14086169 -0.07344229 0.06399881 0.103161626 -0.048659068 0.038510196 0.0056325556 0.07850357 -0.18653221 -0.054762762 0.22295202 0.034894723 0.17782858 0.028419599 -0.07622202 0.18846147 -0.014799197 0.064292245 -0.098721854 -0.1379783 0.10411073 0.083907776 -0.009749267 0.05450115 -0.07852638 0.1055728 0.20227912 0.1978 0.1501079 0.008230745 -0.03743769 0.020851683 -0.07725507 -0.021986863 0.19985421 0.013381381 0.19359168 -0.036022507 0.10799645 -0.0084405895 -0.049233824 -0.0057623903 0.048172735 -0.10061388 -0.09197126 -0.11342625 -0.015244275 0.013543344 0.09599206 0.14222999 -0.16219835 -0.17827272 0.07052452 -0.14159149 0.1525514 -0.1420235 -0.16531305 -0.021577055 -0.001973784 0.018970186 -0.06609326 -0.047049288 0.18173775 0.10590557 0.22561225 -0.03555318 0.030798567 -0.016180042 0.02053554 -0.08015765 0.02901336 0.07545422 -0.032906197 -0.25672877 -0.07133487 -0.056621287 -0.12261254 0.20551343 0.16562788 -0.007481528 0.084039055 0.07172351 -0.16768909 0.123090506 0.09260946 -0.029042982 -0.06994575 -0.032164678 0.2011212 -0.006862966 0.15421358 0.057185184 0.11655866 0.030217597 0.07791469 0.16702326 -0.14819932 0.03544113 0.24381815 -0.19225189 -0.1980132 -0.19573149 0.08284448 0.0835658 0.095656455 0.021951374 0.02672832 0.04863847 0.042697094 -0.15354925 -0.17848247 -0.20821154 -0.05768466 -0.029648524 -0.20658027 0.2494174 -0.101707116 0.29237753 0.0038096267 -0.015610205 0.049656756 -0.011382694 -0.04033199 0.110272035 -0.12737462 0.08549418 0.07010099 0.21027678 -0.0069082575 -0.13967693 0.019193362 0.1885029 0.0641576 -0.14160834 -0.030343248 -0.035022438 -0.27309015 0.12591963 0.25808877 -0.018375175 -0.0049591297 -0.0637752 0.04586448 0.063647136 0.05816624 -0.064175144 0.009735332 -0.010834204 -0.05658617 0.02445679 -0.27274314 0.06306429 0.127821 -0.09415304 -0.10451256 -0.14449537 -0.01002706 -0.05534845 -0.0797973 -0.17502579 0.119850025 0.058798697 -0.06982165 0.018190168 0.17417878 0.11752408 0.09618088 0.037763093 -0.06733123 0.05551918 -0.120075434 -0.07695724 -0.10427513 -0.040521324 -0.015253425 -0.10701164 -0.037364125 -0.10338026 -0.24507704 0.011586197 0.054595757 0.10768009 -0.2243982 0.15896069 -0.07557095 0.0075625437 -0.050170537 -0.20124385 0.13113257 0.033231895 0.014901492 0.21106651 0.14303039 0.045370176 -0.046577066 3.316783e-05 -0.038292073 -0.20750216 0.21465091 0.0029588002 0.23350629 -0.054394566 0.12765633 0.09459292 -0.11926937 -0.029752392 -0.05426344 -0.23859265 -0.055944316 0.094105154 -0.16495234 -0.04413632 -0.22388348 0.09666095 0.073598586 -0.014257419 -0.089834966 0.03460726 -0.056516554 -0.11532323 0.062019613 0.16452217 0.15561132 0.104258716 0.025918689 -0.1946366 0.27915588 0.039507166 -0.028754275 0.19357269 0.0476655 0.029110944 0.18577346 -0.13115804 -0.19024934 -0.233454 -0.05280719 0.25637364 -0.040102758 0.114845596 0.15598091 0.24074267 0.019640056 -0.01721495 -0.042447746 0.15030795 -0.15491267 -0.18512398 -0.14732726 -0.098968804 0.09524855 -0.14223504 -0.13397872 0.13930747 0.102169506 -0.088897474 -0.005033424 -0.17709646 0.061559565 -0.00530558 0.06647316 0.15017478 0.07841942 -0.14030829 0.12598677 -0.13037916 0.21784608 0.048284218 0.15438814 0.061515614 0.13325626 0.150774 -0.012183025 0.1357366 0.015741607 -0.03103032 0.055923235 -0.02148245 0.09838784 0.0892293 -0.19189367 -0.045957252 -0.013685365 0.23424424 0.15394248 -0.061241064 -0.12839015 0.14969715 0.12048057 -0.15482123 -0.0630752 -0.12963167 0.008486774 -0.17652108 -0.2313057 -0.104061596 0.14872815 0.050029285 -0.010502348 0.022436162 -0.1642032 -0.22104259 -0.07971686 -0.05613093 -0.06795638 -0.06585895 0.062261336 -0.14508894 -0.07179982 0.009792669 0.21920754 -0.07726752 0.1318585 -0.15757036 -0.10917017 -0.14973591 -0.06688262 0.13281588 -0.19344097 0.06807818 0.10516163 -0.20329733 -0.24470524 -0.19341615 -0.17329206 0.04100257 -0.12252735 0.028112633 -0.087606676 0.15334983 -0.044299304 0.007194238 -0.13354383 -0.15186086 -0.2637488 0.22549643 -0.005826502 0.013608674 -0.18099724 0.022227198 0.15551919 0.22301511 0.04131941 0.01903346 0.21714756 0.042609848 -0.04758305 0.2176343 -0.038018323 -0.093688816 0.07055159 0.015134538 -0.18722953 -0.19826859 0.26110223 -0.09736224 -0.1625535 -0.19179446 -0.070146196 0.20258202 -0.2121121 -0.1417195 0.017790759 0.23158501 0.023188468 -0.05678578 0.0057545197 0.20560847 -0.0069485535 0.19987231 -0.013635696 0.112910375 -0.19033127 -0.20920585 0.25461414 -0.0129598975 0.118223526 0.105144575 0.022615964 -0.026574586 0.069191754 0.093296885 -0.040638734 -0.044978544 -0.18850574 -0.017782958 -0.025831018 0.16989872 0.00026547184 0.111690275 -0.016562838 0.0725875 0.043402594 0.16939159 -0.019710729 -0.1425518 0.053777657 -0.128327 -0.07779474 0.06251774 0.00044999577 0.02720526 0.009147224 -0.0072531216 -0.08056565 0.15316996 -0.0796897 0.15947244 -0.0075332467 0.18197037 0.085999504 0.04905479 -0.052392382 -0.0093079265 -0.1316823 -0.016354611 0.08314977 -0.05326717 -0.023130897 -0.22795026 -0.0464378 0.15317722 0.11866895 -0.05005453 0.01644081 0.046528608 0.115096904 -0.06616433 -0.22067276 0.1465683 -0.156187 -0.1307544 -0.14179257 0.08743467 -0.026171625 0.15697671 0.155814 -0.1377307 0.06754181 0.06580602 -0.035333414 0.21079256 -0.056502085 0.13174845 -0.024862897 0.07686079 -0.2612232 -0.15828416 -0.0016352223 -0.16672261 -0.07282131 -0.013916502 -0.027098237 -0.035702348 -0.04064642 -0.15826407 -0.14348102 -0.06640628 -0.005154917 -0.049696364 -0.06137009 -0.094377175 0.09214174 0.10397539 0.06678705 -0.06773337 0.107406706 -0.11032695 -0.05951618 0.06446525 0.04855927 0.025118755 -0.15956791 -0.20933168 0.02845693 -0.030196719 0.20840971 -0.0015810574 0.085099414 -0.005406985 0.03833754 -0.07912825 -0.1251826 -0.21709639 -0.0063533275 0.009611644 0.025978267 -0.010207119 0.0879677 -0.043073963 0.19026543 0.05499799 -0.16884488 -0.17942926 -0.11076541 -0.063255794 0.070455365 0.10067493 -0.08177159 -0.0040586772 0.08201859 0.045398455 -0.025544286 0.021095473 0.11064425 -0.097374596 -0.03700308 0.036829095 -0.2528642 0.096067555 -0.07431736 -0.097515404 0.17236209 -0.20561482 0.050674926 -0.0125484 -0.015952883 -0.000740285 0.045858663 -0.037045956 -0.09427259 0.2528486 -0.25822464 0.115416974 0.14512812 -0.11836896 0.01075087 0.06302221 -0.07366519 -0.02330853 0.12038628 -0.0010480187 -0.08141409 0.006752827 -0.06425015 0.16369934 -0.12833397 0.12412589 0.10955928 -0.08171102 0.07004638 -0.0458315 -0.09530377 0.088842474 0.018605135 0.11579795 0.08613888 0.053788856 -0.19428284 -0.17509158 -0.07393059 -0.05263118 -0.19756214 0.090820484 -0.068376265 0.13305731 0.07104604 0.13026527 0.28577295 -0.17944965 0.017195536 -0.2783153 -0.03701634 0.15315449 -0.26158276 -0.071270905 0.13826695 -0.082612 0.019282326 -0.03565271 0.016721843 0.21821848 -0.07573779 -0.19608578 -0.07661035 -0.15774085 0.06935527 -0.07342144 0.16184023 0.06859264 -0.11350128 -0.08976656 0.123151295 0.014813101 0.06434384 -0.09657255 -0.1094462 0.10539838 0.122020006 0.06251884 -0.19675525 -0.0599567 -0.18152212 -0.05378649 -0.18884014 0.16796312 -0.030587198 0.08648296 -0.20200811 -0.18186566 -0.043087885 -0.1605729 -0.02176926 0.08738875 0.086811334 0.18938826 -0.045192525 0.04343582 -0.05220841 -0.01955706 -0.010938647 -0.03303333 0.010095082 -0.027369259 0.23067404 0.13653253 -0.034831528 -0.010719988 -0.20816599 -0.03143428 -0.021211077 0.15613522 0.005527829 -0.15295924 -0.17994852 -0.19952123 -0.08706952 -0.05354026 0.005260829 -0.10342323 0.14236557 0.06958572 0.132618 -0.16504446 0.0013196209 -0.2500444 -0.039318897 0.04164456 -0.09081401 -0.0064690234 -0.09759289 0.1376328 -0.17449963 0.0062832334 0.1232475 -0.040985856 0.081015244 0.13129167 -0.0077991 -0.123018995 -0.035044845 -0.09476926 0.031634983 0.054790854 -0.15866348 0.119694114 0.053298816 0.034660585 -0.18219966 0.101775154 -0.16415462 0.02670182 0.05975587 -0.06526342 -0.03564197 0.11181002 -0.068799116 0.039552342 -0.3083067 0.057077106 -0.0053188093 0.24478015 0.019200755 0.1721864 -0.2352385 -0.05228679 0.12146759 -0.029613208 0.127132 0.07187378 0.063711174 -0.055672973 -0.120292686 -0.1361152 -0.19164172 0.2218757 -0.16434494 -0.107793145 -0.17109635 -0.1829804 -0.052065406 -0.07124094 -0.2701331 0.18355961 0.021243475 -0.0867003 -0.049363513 0.004019985 0.09020769 -0.15118046 -0.006252736 0.24563147 0.006081715 0.027061721 -0.17154467 -0.14581561 0.07955324 -0.030929556 0.2231092 0.034249905 -0.080655545 0.20066324 -0.032841496 0.19294174 -0.04813885 0.009600189 -0.038039602 0.00054591364 -0.16225223 0.11603241 0.020038519 0.24615131 0.06227962 -0.018006183 0.05559084 -0.11353321 -0.094234064 0.12567525 0.19949216 0.0764615 -0.1290724 -0.11065499 -0.18275097 -0.03219823 -0.02383777 0.073334254 0.08102775 0.18182495 -0.1457385 -0.07811928 0.20878948 -0.116601594 -0.022770243 -0.20525713 -0.21608663 -0.08579494 -0.21796341 -0.13565555 -0.046051033 0.18330644 0.17284168 -0.19226855 0.011244477 -0.053735215 -0.045257915 0.1115801 0.16902217 0.03770388 0.040215787 0.041282892 -0.14781235 0.13214129 0.0434098 -0.04187544 -0.07735875 0.10743627 0.09222589 -0.139525 -0.087912366 0.00040036635 -0.1828416 -0.06271325 -0.030541189 -0.03359324 -0.055171505 0.023645204 0.1605515 0.03286401 -0.053318627 -0.19218224 -0.072366275 0.13064699 0.181187 -0.12367819 0.10756825 -0.17288938 -0.07921083 -0.09596945 0.014970883 0.07491368 0.05162242 0.09937131 -0.035274908 -0.0401662 -0.101938285 -0.13304412 -0.03173746 -0.18630376 -0.12846799 -0.069088444 -0.07601948 0.14828339 -0.088390924 -0.12857589 0.06100091 -0.2163586 -0.18480514 -0.038187586 -0.116618976 0.07024472 -0.053584084 -0.14817618 -0.053892188 0.008435352 -0.097597405 -0.04087258 0.06275191 -0.044286903 -0.077285774 -0.06337512 0.1017162 -0.12087395 -0.023769721 -0.059497196 0.02655899 -0.2393607 -0.006065857 -0.14073753 -0.26508695 -0.018166123 -0.13414441 0.005749742 0.12016733 -0.033625707 0.15786459 -0.006496691 -0.0396733 -0.01433683 -0.22851148 -0.065529846 0.024785772 -0.19533531 -0.026669888 0.07047141 -0.12142328 -0.0006952242 -0.18300481 -0.08441322 0.21678987 0.009730387 -0.093596525 -0.028470403 -0.044690967 0.10326197 -0.07915198 0.121079914 0.026207339 0.006665751 -0.08828299 -0.12605666 -0.18274467 0.12926929 -0.27341676 -0.07229547 -0.059246402 -0.08028324 0.021320758 0.06800319 0.020524528 0.16691115 0.1094696 0.08028852 -0.045024212 0.24059922 -0.17203014 0.20837139 -0.18521254 -0.18322606 -0.06985766 0.08956239 0.014888168 -0.100067966 0.12489016 -0.08763397 -0.099510066 0.23588106 0.1617322 0.0061018732 0.02079479 -0.16033338 0.015557662 0.017360436 -0.03353023 -0.026191615 0.09287317 0.091698356 -0.19688097 -0.16094786 0.14427267 0.07128944 0.23900001 0.1557323 0.06277262 0.21684174 -0.08452953 -0.10252831 -0.10595899 0.074827656 0.23189732 -0.10686961 -0.15988232 -0.034293074 0.11902243 -0.011528835 0.2524756 0.3066876 -0.22295205 -0.07494744 0.019092342 -0.084902056 -0.013619579 0.13370995 0.07915164 -0.084872626 0.11412377 -0.10957905 -0.0950987 -0.08011513 0.12177946 -0.16941375 -0.063040175 0.033595864 -0.14650492 -0.02653126 0.11338768 -0.15953042 -0.16861212 0.073115624 -0.03662874 -0.06781922 -0.0037139826 -0.14360096 -0.3328053 -0.0063100914 0.15818043 0.009791655 -0.1305235 0.24592754 -0.017460404 0.129828 -0.10365168 0.0034617253 0.118524306 -0.18598373 -0.0077662966 0.061665088 0.026664374 -0.23901641 0.1264099 0.055237703 -0.20685889 -0.053014606 -0.2562195 -0.12783982 0.18022689 -0.033672445 0.1846866 -0.15884271 0.0921691 -0.1396756 -0.25956163 -0.1425722 1.9890342e-05 0.015150783 0.08103977 -0.19847506 0.01567011 -0.26706943 0.20176543 0.036766436 -0.002849621 0.07098205 0.09805186 -0.022122623 -0.09166139 -0.055935554 0.053661935 -0.08836728 0.02983747 -0.028700523 -0.047165647 0.015110826 0.023729289 -0.1592214 -0.022210734 -0.063897416 0.26240203 -0.09264117 0.08003305 0.0255251 0.1943699 -0.25599802 -0.08838449 0.009886731 0.060869522 0.20839745 -0.018361615 -0.28375763 0.0136677055 0.12888905 -0.014401077 -0.14365256 0.1717149 0.061680593 0.016963841 0.02977795 -0.13340624 -0.11845177 0.004047262 -0.057152662 -0.0264837 -0.017197859 -0.09960498 0.028608212 0.03309343 -0.11476707 -0.10971793 -0.2018643 -0.17067255 0.093277454 -0.21152413 -0.09518015 -0.14774348 0.11679068 0.29269743 -0.06849098 -0.05562553 0.20990151 0.021556009 -0.042177245 -0.1280337 0.028956436 -0.063722305 -0.083413415 0.06815021 -0.0041698716 0.12899043 -0.12260347 -0.20761304 -0.12599497 0.1401679 -0.017569609 -0.037330706 -0.042919893 -0.1430277 -0.030447679 -0.17286634 -0.03214723 0.053501092 -0.017846512 0.09589913 -0.15301606 -0.12707022 -0.20567589 0.0062205466 -0.020435981 0.07537496 0.10070296 0.07757213 -0.07443014 -0.057158224 0.10682973 -0.23940328 -0.15448786 0.033511452 -0.04132983 -0.11793739 -0.031514592 -0.12313304 0.038494106 -0.05475295 0.028041033 -0.082896166 -0.105370365 0.08433948 0.16976878 -0.015553225 -0.066966936 -0.09653601 -0.033368874 0.033387788 -0.28639898 0.2080285 -0.13827364 -0.08872681 0.045893576 -0.12469882 -0.21993415 -0.041303277 0.05906121 -0.004731046 -0.15125367 0.14359799 -0.07999608 0.009885364 -0.057481594 -0.0021400396 0.14358051 0.23315153 0.17421529 -0.15958488 0.09047034 -0.008991992 0.12313029 -0.12062983 0.17502807 -0.1592541 -0.06913763 0.13861704 0.19027852 0.062123764 -0.059782322 -0.07881233 -0.20319708 -0.039137248 0.034570634 -0.0785648 -0.079566434 0.031260964 -0.01311357 -0.14841811 0.13559383 -0.081018776 0.06939599 -0.14664364 -0.14077114 0.10339992 -0.0072438205 0.05284733 0.1062041 0.12450374 -0.070367865 -0.0010848565 -0.1167199 0.15128544 -0.04499337 -0.114703834 0.011835218 0.097011976 0.20158581 0.19137985 -0.02795269 -0.13545093 -0.14516608 -0.07242863 0.040301792 -0.17569637 0.057827283 -0.027009603 -0.25785318 0.13084166 -0.16818444 0.21321064 -0.03244173 0.08447896 -0.077906355 0.08921021 0.10613296 -0.010340306 0.07165538 0.15492654 -0.07725003 0.0016098588 -0.027942553 -0.040205706 0.07719591 -0.10499036 -0.2217743 0.21195324 -0.0142969005 -0.034259923 0.19647798 0.18111344 -0.16136564 -0.089390464 0.06932472 -0.03489335 -0.076143734 0.13348953 -0.091665044 0.144078 -0.14337608 0.25686613 0.1284519 0.18426405 -0.004361024 -0.11776283 -0.22338869 0.019017262 0.15297799 -0.044455167 -0.09108444 0.2119218 0.027173826 0.10923159 0.03653353 0.28594133 -0.12267586 0.033665534 -0.20646143 -0.11398803 -0.20903753 -0.10763315 -0.20842789 -0.20814665 -0.010686294 -0.19482288 0.087048404 0.22025608 -0.05720216 0.16200362 -0.10714805 0.023771258 0.030082604 -0.25648215 -0.12411171 -0.23740138 0.14140509 -0.07732224 -0.20216258 -0.14726514 0.12678702 0.117390625 -0.137806 0.117960386 -0.21111222 0.24346998 0.043355774 0.06305751 0.21449438 0.07832908 0.1789586 -0.1741809 -0.0111775305 -0.14865917 0.03596237 -0.011072851 -0.10403538 0.053577133 0.009896031 -0.07665862 0.3533944 -0.10876334 0.1815909 0.008204675 -0.0062944167 -0.07497939 0.016620006 0.021372128 0.042458873 0.05421134 0.016892843 0.042861473 0.17061517 -0.0417879 -0.051064767 -0.13847348 -0.03182838 0.035234883 0.124049865 0.102168016 0.14986113 0.0782595 -0.089485854 0.07988701 0.020844514 0.004738817 -0.0035430049 -0.028950475 -0.061153054 0.0704326 -0.060233198 -0.0069278223 -0.14213657 -0.056290474 -0.29453686 0.12954706 -0.0036878579 -0.08648407 -0.08857323 -0.22013895 -0.08906795 0.21555343 8.782173e-05 -0.032541264 0.011171441 -0.03260486 -0.044254147 0.11753366 -0.081623994 -0.08604938 -0.03228208 0.009863612 0.08645656 0.049171504 0.056832694 -0.16941378 -0.1862505 0.117889225 -0.02457476 -0.045412574 -0.17770286 -0.0051378445 0.0998548 0.026699513 0.21133935 0.022347871 0.1788474 0.10620579 0.0028411963 -0.071463645 0.032024633 0.0332714 0.102272354 -0.043444768 -0.10486823 -0.008783422 -0.014443381 -0.009195233 0.14203498 -0.0837824 -0.12012675 -0.12012082 -0.11260739 0.19979587 0.1867512 -0.2597819 0.06580175 0.1318653 -0.026654696 0.0050140405 0.082332864 0.05012134 0.0712549 0.034424085 -0.07605531 -0.0055733137 -0.24110438 -0.10737756 -0.0586666 -0.06710929 0.24722132 0.23576203 -0.019505247 0.17839076 0.17108503 0.06820485 -0.199987 0.15447836 -0.1802825 -0.05888488 0.002974985 -0.07214534 0.026308008 -0.11125942 -0.16402656 0.105586335 0.13051826 0.1614582 0.23078553 -0.09592141 0.18984991 0.04749496 0.035674583 0.047576495 0.041006215 0.06826219 0.12721595 -0.02319554 0.15960209 0.05857043 -0.036841393 -0.14277612 0.0069726184 0.28359142 0.06835805 -0.065682456 0.066538304 0.09356818 0.1871781 0.0714823 -0.06741689 -0.09444088 -0.25595036 -0.02976122 0.0036017036 0.051082544 0.055277824 -0.081095874 -0.14701255 0.05387571 -0.003913722 -0.011110018 -0.08104406 -0.23974228 0.059638515 -0.039462794 -0.1147054 -0.132016 -0.25844073 -0.25983426 0.22493145 0.098798715 0.008168774 -0.02169608 0.18201557 -0.19410652 0.083632566 0.04061658 0.0020470368 0.18080682 -0.11407174 -0.035782464 0.020801684 0.22837135 -0.05062332 -0.111785576 0.018164255 0.04986594 -0.028625794 0.08668355 0.12993734 0.014338209 -0.14926013 0.012068392 0.15208316 -0.062612884 -0.040756844 0.0038143147 -0.09657391 -0.19799714 0.07808428 0.021886442 0.14835967 -0.19359002 0.01910754 -0.070953846 0.09518362 -0.0285831 0.27820772 0.038068086 0.055278815 -0.0633939 0.0666141 -0.22267361 -0.24828982 -0.22677973 -0.21296337 0.033691518 -0.09327552 0.26008946 0.028169274 -0.096829325 0.01893762 0.007642134 0.02574537 0.17971647 0.20542048 0.025200943 0.053609706 0.17739733 0.12226262 -0.08818474 0.16230711 -0.14999563 -0.10530182 -0.16864981 -0.16184711 -0.029054372 0.11462748 -0.09029965 0.09107912 0.019559428 -0.08405935 0.06372266 -0.02829839 0.14950116 0.027801614 0.029847084 0.09502525 0.0010640107 -0.039244693 -0.11464474 -0.075496845 -0.11171326 0.061629646 0.14702053 -0.024085712 0.0063302796 -0.053336184 -0.2527119 -0.016708568 0.06044063 0.12866245 -0.042858645 0.034579366 -0.03395787 -0.106797256 -0.017571222 -0.16221225 -0.012012814 -0.19687979 0.106161684 -0.13367377 -0.021034425 0.11691767 0.04860349 -0.1335559 -0.155145 -0.006582576 -0.09739175 -0.06351409 -0.07132387 0.14002325 -0.24140225 -0.24848993 0.113628596 -0.17457312 0.16088335 -0.05228929 -0.022512713 -0.0532729 0.06945073 0.1913113 0.17441922 0.07942346 0.05735187 0.08988544 -0.016060216 -0.058344774 0.022943463 -0.026221633 -0.22144629 0.015858384 -0.009791063 -0.15346617 -0.13111481 0.0726809 -0.12710077 0.12284725 0.24282086 0.19107209 0.045282915 -0.17854387 0.10038407 0.2011819 -0.06282862 -0.08838638 -0.041805036 -0.09505632 0.073023245 0.0040849647 0.1894347 0.21716486 0.084638104 0.039651684 -0.042182226 -0.026136266 -0.14583677 0.014185066 0.011436359 -0.005053217 0.08994245 -0.0033958599 0.083610706 -0.20519383 -0.0077768504 0.2930256 -0.027998272 0.15018803 -0.015258041 -0.18341559 0.16622978 -0.2531483 0.013196935 -0.027640676 0.2453439 0.026057994 -0.1757532 -0.029124148 -0.21385151 0.10134047 0.05818615 -0.07587574 0.056132067 0.071386166 0.10962472 0.24211875 -0.210953 0.070421524 0.11449954 -0.060960926 0.20064104 0.13376199 0.26329154 -0.084311366 0.18254428 0.24718703 -0.17249753 -0.006163506 0.02121866 -0.04337697 0.029420799 -0.062317416 -0.024240915 -0.1152191 0.047276076 0.042220008 0.06242044 0.018658096 0.043388832 0.052615933 -0.025053442 -0.08449068 0.0117592625 -0.20386015 -0.030171765 0.028104458 -0.06941324 -0.10576632 -0.25094724 -0.0041403957 0.1105185 -0.026255958 -0.025874872 0.19374445 -0.026240611 0.06924425 -0.14529401 0.052723847 -0.20813413 0.14630368 -0.029653031 -0.0023971247 0.06918935 -0.09948643 0.055378404 -0.15966633 0.047540486 0.10075168 -0.14496744 -0.08464266 -0.12820986 -0.12972714 0.044609293 0.02003983 0.18157075 -0.23010187 -0.07371126 0.09846329 0.0022467214 0.031859007 -0.10826645 -0.0070797894 -0.18754977 -0.06697737 0.06515399 0.034128577 -0.044599432 -0.06561368 0.14582 0.13027516 0.06995165 0.03238274 0.13660252 -0.09700844 0.219719 -0.1772242 -0.15304083 0.09507581 -0.03351731 0.02648211 -0.0065968754 -0.01953631 0.08879603 0.07111751 -0.052506138 0.21123934 -0.21478304 0.129964 0.10899299 0.21560398 0.09597099 -0.014520169 0.11224919 -0.026567103 0.029093625 -0.004605624 -0.15474753 0.03546681 -0.12671292 -0.26784185 -0.293064 0.119012795 -0.07088612 0.04389324 -0.053725522 -0.11694979 -0.11984718 0.06975546 0.046823367 0.015521306 -0.0028586627 0.066631 -0.02298105 -0.095582254 0.0530957 -0.19155435 0.15586019 0.044023838 -0.02543514 0.21466193 0.16539659 -0.215511 0.2189137 0.03285148 0.23592386 0.008216622 0.1362429 -0.0219507 -0.041840926 -0.12576048 -1.5287746e-05 -0.02587744 -0.17482959 0.14806196 -0.14220431 0.20843665 -0.040982205 0.1569386 0.043195836 0.21702886 0.037265882 -0.16140114 0.12771516 0.03684344 0.023550972 -0.059948757 0.07551794 -0.095190994 -0.09317467 -0.058697443 -0.0013538059 0.0389656 0.096800536 -0.21143529 0.03751251 0.06508473 0.2610124 0.07581128 -0.17956313 0.013433508 -0.0062180245 -0.003213367 -0.10888387 -0.1124795 -0.048917305 0.026472013 0.0059152627 0.03819154 0.16294003 0.008149654 -0.07338321 -0.057630602 0.121889584 -0.03412166 -0.15219454 0.14351064 0.113237225 -0.015423597 -0.13446121 -0.04003704 -0.21442819 -0.1397854 0.03380944 0.09477855 -0.014654362 -0.13663754 0.016904399 -0.11253115 0.18258767 -0.11160219 -0.07914116 -0.026562087 -0.19955905 -0.029032499 0.10638696 0.030696915 -0.19810025 0.024074312 0.018179197 0.15129428 -0.1534842 -0.07156908 0.09246145 0.12533751 0.121744424 -0.05758212 0.014662177 0.21055308 -0.060447976 -0.1316952 0.035173748 0.01728014 -0.19954884 0.23835431 -0.005993837 0.029557532 -0.07358218 -0.056918688 0.018272018 0.21589509 -0.18128003 0.06518316 0.20980318 0.04049429 -0.045008928 -0.17914139 0.09481226 0.060406543 -0.08402047 -0.037135474 0.08282256 -0.22514595 -0.21859036 -0.12322135 0.11202196 -0.04230328 0.018493675 0.040939488 0.23815814 0.056237496 0.035337225 0.111351326 0.13858856 0.055134717 -0.0008386357 0.06828436 -0.18825394 0.18567596 -0.17745024 -0.093669325 -0.21128011 -0.09806803 0.15510327 0.1932286 0.066044986 -0.21290916 -0.044292822 -0.1252139 -0.074805774 -0.20373115 0.00089055626 -0.072707176 -0.10651411 0.08471323 0.05631889 0.20306924 0.27766973 0.034818083 -0.007528356 0.10875698 0.14739896 0.19723038 -0.21487215 0.01613698 -0.19102648 -0.062342077 0.029663505 0.105906405 -0.0145511655 -0.10586031 0.016697682 -0.0004520008 0.24215367 -0.007071737 -0.23532486 0.017644312 -0.23623873 -0.17950456 -0.011059641 -0.2269644 0.071547806 -0.1691717 -0.003293469 0.037344795 -0.030734979 -0.056106526 -0.12700665 -0.11650019 -0.07264356 0.1613443 -0.015211361 -0.20618978 0.030893529 0.05465112 0.101628594 0.10942024 0.032252 0.070789814 0.06669637 0.13690624 0.08359491 -0.06180122 -0.05058906 0.20682243 0.0414088 -0.05215782 -0.009904307 -0.116426885 -0.006230113 0.22982466 -0.043221373 0.028803892 0.03984029 -0.045094047 -0.20927452 -0.086906455 0.13564667 -0.026262293 0.23583446 -0.18378663 0.16062742 0.21732731 -0.26289374 -0.0057568396 0.16705546 -0.2536234 -0.0906312 0.18697949 -0.085315876 0.06622991 0.0770049 -0.1870088 0.08903585 -0.09662252 -0.04144806 0.027689891 0.028035583 0.065193176 0.0619057 -0.2047479 -0.02584893 -0.1364419 0.0062088137 -0.004190116 0.109824985 0.12252179 -0.104395606 0.24250026 0.17330831 -0.17502584 0.03577703 -0.2049799 -0.003181815 0.00485018 -0.015650138 -0.023686657 0.1527378 -0.024896543 -0.032079563 -0.0652334 0.048912466 0.13693438 -0.021657102 -0.025017355 0.04474742 -0.1561825 0.06319102 0.061533455 0.23646137 -0.13700332 0.016960192 -0.14139187 -0.13201533 -0.12985508 0.15571758 0.07641276 0.0003907432 0.25506517 0.06616156 -0.1974932 0.12522608 0.15379426 0.010765265 -0.19381694 0.13833466 0.065425016 0.016460327 0.15302604 -0.22937001 0.16279021 -0.24990499 -0.08892951 0.1335792 0.1917924 -0.025290938 -0.20233081 -0.06084674 0.21790113 0.053108864 0.109720945 -0.04090346 0.032963816 0.14096594 -0.17844239 -0.09827303 -0.098570585 0.05269449 -0.06463293 -0.017618764 0.13744295 -0.1550023 -0.1169829 0.1028955 -0.2088415 -0.079553306 -0.07139546 -0.055173196 -0.10996518 -0.119679816 0.039958004 -0.08413507 0.18940192 0.04945355 -0.056021675 -0.18503478 -0.012673354 -0.17454173 -0.18738467 -0.14159669 -0.13044968 -0.03729689 0.21732683 0.09671239 -0.11931198 -0.1273185 -0.023683567 0.07734823 0.12495938 0.034711853 0.07755145 -0.15867986 0.070566356 0.04467227 -0.0066349376 0.034808166 -0.16937673 0.14499228 -0.0023097452 -0.1087144 0.13582093 -0.096815005 0.04933269 0.11920277 0.09668589 -0.092061944 0.11981991 -0.22265768 0.108746186 0.1439807 -0.027477136 0.0036701004 0.1137901 -0.110756345 0.04838268 0.022340255 -0.16179031 -0.090726435 -0.04428347 -0.25355968 0.22265847 -0.19130065 -0.011095867 0.028003117 0.040262364 0.15979135 -0.034309983 0.18818459 0.12553841 0.0040947413 0.1936583 -0.07890977 0.11954503 -0.034704283 0.20436615 0.042680714 0.012141281 -0.08582002 -0.2347231 0.19475076 0.03023537 -0.1214155 -0.26646322 -0.03471536 -0.22269215 0.07268784 -0.15230295 -0.13516477 -0.12085311 -0.07144859 -0.12662928 0.028625654 0.01790185 -0.005946196 0.08643922 0.16161853 -0.044801775 0.10561293 -0.17096011 0.082119584 0.079464026 -0.10778801 -0.20529598 0.02065102 -0.15019861 -0.10015281 -0.1290802 -0.028367443 -0.15189171 0.089985065 -0.0016350151 0.1167269 -0.076973036 -0.054541092 0.12280415 0.04241033 -0.24638774 -0.16204362 -0.050125632 -0.065615945 0.08234447 -0.055333175 -0.13286246 0.035878874 -0.09968277 -0.00050679606 0.019466072 -0.050401986 -0.07113135 -0.15721565 -0.12015147 -0.19092716 -0.22677393 0.033990193 0.2687991 0.058668613 -0.11134296 0.21671852 0.02296528 -0.111694664 0.20086373 -0.07898438 -0.2535958 0.027787827 -0.11034758 0.05084787 -0.073324695 0.19689345 0.2099198 -0.06790745 0.107090615 0.1404762 0.0007116495 0.15254593 0.19639412 0.028913684 0.058179867 -0.020526744 -0.1197423 -0.27024564 -0.2095952 -0.2396299 -0.075240895 -0.10837157 0.0433892 -0.012830434 -0.05831948 -0.029196704 0.114944406 0.09615954 -0.09525921 0.17978163 0.06732534 0.08996858 -0.09489977 -0.021966556 0.22298184 0.122055285 -0.07847812 0.0029967958 0.15969636 -0.040906183 -0.15855277 -0.08534826 0.08689798 0.027612124 -0.05534619 -0.14351329 -0.08943206 -0.2170823 0.043227702 0.21442874 0.014872084 -0.08028239 -0.017293818 0.010613547 0.12920402 -0.042667765 0.008242784 0.04894815 -0.03334808 -0.07417763 -0.009003892 0.08391508 -0.12904954 0.18212187 -0.025628487 0.1858811 -0.018588895 -0.034246955 0.03235266 0.045163326 -0.19647396 -0.0542651 0.12604964 0.0145705305 0.14025822 -0.1349021 -0.13370201 0.103674695 -0.059308287 -0.01348397 -0.018405693 0.9990675 0.98905134 1.0015432 0.9932547 1.0091873 0.9898861 0.9789645 0.98286986 1.0080749 0.95564926 0.9497945 0.99781936 1.0363083 1.0425123 1.0291791 1.0506065 -0.011384073 -0.050979745 0.027505474 -0.017453395 0.027614355 0.0030058387 0.0071675614 -0.03113311 -0.07004518 -0.02640226 -0.042821135 0.009190447 0.0276152 0.01939958 -0.023514071 0.0076636355 0.06782012 0.007099416 -0.3190233 -0.43780243 -0.6451614 -0.6891645 -0.8780587 -1.3584186 -0.31947508 0.6016974 -0.534528 0.06308308 0.025303608 -0.089017645 0.016579343 -0.7947998 0.29866588 0.5247287 1.6597487 0.6011903 0.3555898 0.6210811 1.6249971 1.1887319 0.65639675 1.0354885 1.1119237 0.3684932 0.36918724 1.185899 0.847129 0.8330786 0.05103231 -0.09285722 -0.109301224 -0.013573443 -0.021681976 0.036205035 0.02333345 0.21472265 0.017505785 0.0344439 0.2205761 -0.14592141 0.27158603 0.19521895 -0.06436459 0.09603315 0.12491098 0.004196188 0.104672536 -0.05195743 -0.18224055 0.22719178 0.19989873 0.010536519 -0.045825236 0.1645158 0.10751228 -0.08091999 -0.08810315 0.025948267 -0.17841446 -0.13167575 -0.01556282 0.09334639 -0.13318935 0.17750527 -0.11829996 -0.033617903 0.12703678 0.052845843 -0.03751696 -0.033449784 -0.2080782 0.18857585 0.04798382 -0.03442627 -0.074833326 -0.06881038 0.27742937 -0.09815961 0.13658382 0.1578609 -0.18974982 -0.02344398 0.2375416 0.026318476 0.036399882 -0.12022709 -0.10980745 0.012554909 -0.030836098 -0.06281995 -0.06630565 -0.10707366 -0.15969528 0.0916431 -0.07847566 -0.14331484 0.11041012 0.091204785 -0.111100234 0.23191793 -0.036859803 0.01217385 -0.07783618 0.09541762 -0.07222689 0.13775824 0.04254616 0.13307598 0.09769914 -0.067771845 -0.0025665655 0.063131735 0.018135713 0.110386394 -0.037455194 0.08333298 -0.13984664 -0.18165879 0.07652401 -0.02611584 -0.17731778 0.0030659547 -0.06730707 0.07699005 -0.056131043 -0.12759829 0.23301287 0.022033848 -0.014429204 -0.13308881 0.082706496 0.027735619 -0.07241314 0.19409052 -0.11291403 0.09796362 0.13878877 0.0691984 -0.10073424 -0.12092255 -0.17833363 0.20360693 0.12753458 -0.2284922 -0.13859335 -0.15852377 -0.17133075 -0.19014494 -0.19626163 -0.13755283 -0.18564256 0.06657343 0.0039614616 0.25272232 -0.08053995 0.14693408 0.17465979 -0.15144274 -0.12984067 0.1283471 0.20646678 -0.08936443 -0.11310296 0.043272756 0.037397083 0.08179869 -0.109048605 -0.010839022 -0.1466868 -0.097222805 -0.0019613542 0.16592692 -0.061158456 -0.14400275 -0.2526759 -0.024050834 0.11154575 0.17697483 0.12793772 0.27410617 0.049387258 -0.052636355 -0.04928552 -0.06676037 -0.20663594 0.056836717 0.22570118 0.15786755 0.08788904 -0.04191715 -0.009734856 -0.004171125 -0.08438575 0.12880778 -0.22904743 0.035280295 -0.04304616 0.11685275 0.122317106 0.040285267 0.0066638356 0.2531862 0.20901303 -0.19595067 0.121944085 -0.2013637 0.14286846 0.27191794 0.035801224 0.26976052 -0.0666919 0.08155153 0.15629376 0.121051185 -0.16381794 -0.07952834 -0.056053832 0.2068985 0.0028700256 -0.24911165 0.16434187 0.041983686 0.2233553 0.2061442 0.094449036 -0.09480854 0.24896234 0.14278433 -0.206197 0.12874413 0.028875744 0.03894094 0.086281866 0.08098119 0.05498465 0.012936227 0.20650443 0.14567854 -0.0053991056 -0.11952195 0.12569861 -0.12998854 -0.18530247 0.020353608 -0.14276454 0.17410459 0.046683982 -0.0035669524 0.14085904 -0.20130609 0.051565927 0.006564983 -0.12297745 0.03847919 0.017017152 -0.10364103 0.13721952 0.07012584 -0.1207228 -0.044080947 0.017106159 -0.023506956 -0.13601246 -0.16936785 0.020704998 0.22006816 0.23755355 0.059225906 -0.0039759697 -0.081507646 0.08504486 0.06984771 0.24916928 0.037950005 0.22423033 -0.10542751 -0.022410976 0.06520914 0.14821398 -0.18033408 -0.053994473 -0.07494455 -0.024358938 0.21612033 -0.019083459 0.061025325 -0.054700743 -0.1080841 0.2132945 -0.0137255 0.06139263 0.22893734 0.09320868 -0.046995595 0.01938528 -0.092035234 0.07557094 -0.15666543 -0.1340083 -0.008100288 -0.1075022 0.17130193 -0.17332052 0.026238559 0.07279351 -0.1598242 0.061420504 -0.06646749 0.12528709 -0.15928462 -0.13830584 0.043574154 -0.07454604 0.08473592 0.10118399 -0.040712703 -0.16113535 0.05575354 -0.019666176 -0.0849236 -0.18780531 0.018795522 0.08203712 -0.20753099 -0.14534608 -0.05334018 0.24413946 -0.18062945 0.06370755 0.18865205 -0.2256755 -0.09015576 -0.108921394 0.060596906 0.11925249 -0.11285384 -0.20039068 0.058523796 0.1160131 0.0108114695 -0.057660155 0.0318383 0.009870342 0.09411307 0.1667758 0.00889826 -0.23737307 -0.004454203 -0.20235762 -0.02962455 -0.07916225 0.1479047 -0.028724987 0.030342417 0.03773994 0.14266644 -0.04460921 0.19110686 -0.079640836 0.0794312 0.03480248 0.10495932 -0.06274862 -0.25069928 0.2313308 0.018178977 -0.17110567 -0.014422274 -0.10234204 0.15402994 0.033974387 0.10386428 0.16660595 -0.27144524 -0.08395395 0.21801144 -0.06834415 0.030363653 0.026873097 -0.07733488 -0.15731987 -0.1365238 0.07133686 -0.026595283 -0.033487216 -0.18877073 -0.03462156 0.12338769 0.07623725 0.0047270125 -0.025203725 -0.08976455 -0.039178558 -0.1583518 -0.046612706 -0.001120014 0.13983785 -0.015451487 -0.13092461 -0.17606942 -0.091706045 -0.08663094 0.10093788 0.20907776 0.24677436 -0.13980384 -0.18615806 -0.06920469 -0.06822575 -0.14313823 -0.04047143 -0.108587004 0.083942376 -0.01888757 0.20697528 -0.15890777 0.029089946 -0.009106488 -0.016440393 0.20307711 0.11410281 -0.004204925 0.0062910332 -0.24766737 -0.050724205 0.052323107 -0.101355076 0.056609023 -0.20809563 -0.016023634 0.2516899 0.09723113 -0.017073102 0.061154105 0.123533964 0.123745665 0.0074343276 -0.022753272 -0.0032932772 -0.096590795 -0.041332927 -0.05654918 0.026375884 -0.07527413 0.14547604 0.06540352 -0.13260984 0.05503108 0.010368549 0.0035104116 -0.20161146 0.05060756 -0.108072065 -0.0082662795 0.057531666 0.0634521 0.079158545 -0.2631684 0.10801334 -0.03833246 0.093277596 0.017986443 0.115209445 -0.16353512 0.085820794 0.007619611 0.10253886 -0.10625244 0.08466671 -0.03391398 -0.014242998 -0.07228406 -0.13560024 0.07405136 0.004826159 -0.10621536 0.038155876 -0.064741485 0.1576685 0.10251534 -0.04392374 0.27788413 -0.16607721 -0.031012453 -0.22116125 0.20255363 -0.0045670983 0.022886006 0.026114713 0.10578712 -0.19118765 -0.16658118 -0.17301115 0.060749225 -0.29082 -0.12178771 0.037910264 -0.001939485 -0.17829655 -0.13415757 0.08234021 0.016468095 -0.017965602 -0.098241 0.06641358 0.06984262 -0.07705509 -0.085398294 0.15607576 0.14049807 -0.116427466 -0.047803316 0.10604188 0.16895004 0.084257215 0.21365151 -0.06594845 0.0640019 -0.16586608 -0.19589606 0.07670646 0.006342233 -0.030052444 0.15570037 -0.07496176 0.07420161 0.12073543 0.02842522 -0.05760925 0.012369125 -0.036713995 -0.15114266 0.051491957 0.16158415 -0.05699136 0.1867584 -0.12006146 -0.053035524 0.11269067 0.07174561 -0.13939 -0.038804773 0.019961491 0.06769824 0.0014334413 0.049702246 0.12758288 -0.24127391 -0.070672214 0.10529629 0.22106096 -0.04058144 0.16423301 0.06352221 0.09139202 -0.14578298 -0.1057445 0.1663249 -0.22036889 -0.0692584 -0.020879442 0.22127283 0.15567167 -0.09608424 -0.15805689 -0.07138456 -0.12190479 -0.17135847 -0.18084587 -0.16558722 0.1314203 -0.09229032 0.08799923 -0.07948501 0.00017672143 0.1444153 0.0041797366 0.14554553 -0.16911314 -0.018315949 -0.041814327 -0.07056444 0.10673017 -0.1455568 -0.1894784 0.11194743 0.034313172 0.22672158 -0.2125054 0.02078619 -0.14898281 -0.14423825 -0.12810497 -0.28512958 -0.1037175 -0.1993888 -0.0647874 -0.32564625 0.12866007 -0.15921369 0.0013505816 -0.064690016 0.027399851 -0.2289551 0.26420993 -0.22889136 -0.016362088 -0.103141025 -0.12298563 0.010064168 -0.057709944 0.024930602 -0.16077095 0.09298765 -0.028101543 -0.1329422 -0.17880861 0.04963977 -0.22212635 0.018177845 -0.011204033 0.030462818 -0.25374424 0.092516035 0.17804462 -0.106423005 0.063035086 0.027684577 0.18892132 0.039758578 -0.10870759 -0.1004315 -0.048980612 0.00027482386 0.14201963 0.079048 0.007689573 -0.20377031 -0.06832713 -0.0120368665 0.06734255 0.19845796 0.039478026 0.0027877772 0.044898648 -0.008037866 -0.020690061 -0.042638183 -0.24104851 -0.082359456 0.0029855839 0.23553492 -0.10140339 -0.026475681 -0.14049889 0.06342124 -0.079030335 0.09663514 0.17779042 0.02909458 -0.01938676 -0.044401474 0.028463034 -0.16092572 -0.10766787 -0.09334673 0.16001792 0.17850232 -0.04653632 0.078258954 -0.11928727 -0.18913712 0.17322788 -0.0395956 -0.18996055 0.14310127 -0.059171982 0.19708934 -0.09333518 -0.16422418 0.14623153 -0.21588609 -0.28221723 -0.036335096 0.13083926 0.020451538 -0.039024822 0.007722405 -0.020040188 -0.15075734 0.22730833 -0.009037832 0.16149785 0.21639156 -0.027988257 -0.025874864 -0.06667528 0.11397577 0.11266117 -0.0165339 -0.05499859 0.14692622 -0.15622382 -0.16004963 -0.06508932 -0.11175773 -0.044570513 -0.09132372 0.24123977 0.24058099 0.18631676 -0.06401199 -0.042320028 -0.028521882 0.04757242 -0.20771843 0.1406184 0.07801706 -0.038461935 -0.12945393 0.14314248 -0.2006005 -0.14521135 -0.0795138 0.15102619 -0.15347318 -0.17593181 -0.1236058 -0.0393786 0.014720287 -0.037264314 0.011177041 0.08039004 0.15579125 0.13665698 0.024721116 -0.009244168 -0.1122517 -0.10803063 -0.08479785 -0.050533943 -0.10835827 -0.055901386 -0.067974485 -0.095419206 -0.10630211 -0.07411669 0.0874787 -0.13418289 0.09242322 0.049627807 0.12714382 0.07608588 -0.11915697 0.07523602 0.058343872 -0.0979398 0.018139947 -0.14272684 0.025566267 -0.0011628013 -0.10831732 -0.03800727 -0.12642017 0.083481714 -0.15329863 0.086124726 -0.20889027 0.1011516 0.100014985 0.118509956 -0.06233867 -0.08744352 -0.06992755 -0.10454188 0.08512208 -0.09550662 -0.11297117 0.1306571 0.053522497 0.17050959 0.20647122 0.10877356 -0.24058118 0.20790607 -0.12322658 -0.28156897 -0.11796603 -0.31886694 -0.00781089 0.14790747 -0.12467616 -0.0053625847 -0.14715539 0.03824658 -0.11207774 0.08344177 0.06020543 -0.10973536 0.0072762305 -0.1363049 -0.15051042 -0.03996501 0.1849041 -0.05181334 0.06527637 -0.18513545 0.03792813 -0.20697136 0.11917554 -0.12021514 -0.0052979686 -0.05062505 -0.26147252 0.122379914 -0.09626568 -0.15102269 0.03675335 0.12595996 -0.059722725 0.032241613 -0.13349515 -0.115987234 0.22004743 0.113084115 -0.02802786 -0.017592536 -0.061758306 -0.10474722 0.01607822 -0.256819 0.046779934 -0.023968808 0.04630342 -0.1935536 -0.16169564 0.16682385 0.294083 -0.10635213 0.0073051625 0.0614477 0.13920516 -0.033506736 0.064113736 -0.040392783 -0.101538144 0.105873354 -0.11971034 -0.10834915 0.096842475 -0.015024956 -0.08152228 0.25013602 0.058646034 -0.016789617 0.17435084 0.17265229 0.015049174 0.09052305 0.046760783 0.10915569 -0.27536717 -0.19108614 0.15308134 0.05076968 0.20637837 -0.09687864 -0.19802287 -0.098330885 -0.2962019 0.05368971 -0.052156515 -0.12639152 -0.077362575 0.11747652 -0.103767715 0.16133747 0.07070185 -0.02372382 -0.07185956 0.14106372 0.09789299 -0.06613666 0.038138475 0.01546768 0.032460917 -0.101703085 -0.057569552 0.11722802 0.16771175 -0.25540796 0.11200098 0.17380366 0.1381804 0.10434519 -0.15260309 0.054061033 0.06784877 -0.055784263 -0.14289622 -0.09113689 0.010726603 -0.040058706 -0.15654118 0.07564707 -0.06342287 -0.08500873 0.04120145 0.09176944 -0.017224506 -0.12734935 0.070267 -0.11869595 0.027619012 -0.27891988 -0.14496382 -0.12960178 0.13707502 0.050581574 -0.035815183 -0.00941491 -0.1159876 -0.14788793 -0.22888964 0.08517653 0.07678533 -0.26577798 -0.08980395 0.2127206 0.026161898 0.05553017 -0.0770234 0.030090658 -0.08125874 -0.17105031 -0.029012902 0.053706367 -0.07326921 0.11221985 -0.10273814 0.112271875 -0.06309144 -0.022079613 -0.052362017 0.09519284 0.029145202 0.22733383 -0.035891645 -0.09447029 -0.08722126 -0.18614718 0.07092157 -0.019332122 0.019942686 0.07351613 0.075611696 -0.10047784 -0.0034480945 -0.13711786 -0.114266455 0.19450872 0.074710794 0.0052995365 -0.10139698 -0.07673886 -0.19303635 0.13362294 0.21687496 0.10171028 -0.06791449 0.06707934 0.071638905 0.20640151 0.024204178 -0.12624043 -0.053280003 -0.04597126 0.035626266 -0.12349387 -0.11996391 -0.06512651 -0.08371656 0.0122828195 -0.023131568 -0.07444337 -0.10006928 0.042226184 -0.048569813 0.0545429 0.0036159912 -0.19075665 0.12673624 0.13828175 0.11441974 0.09541228 -0.046414405 -0.013037523 -0.102583624 0.11832092 0.16727932 0.12707527 -0.039993566 -0.07458516 -0.12535143 0.086701 -0.14241643 -0.19555387 0.27243918 0.2523333 -0.09511262 -0.10190464 0.15720019 0.075404026 -0.055067785 0.050078906 0.053148244 -0.13168913 0.03918571 0.05823309 -0.0908954 0.0053485893 0.13183995 -0.06389526 -0.18535985 0.06296375 -0.0034186393 -6.348083e-05 0.004684909 -0.24606879 0.023630686 -0.017406546 0.1894256 -0.003473206 -0.033568624 0.28685796 0.015307074 0.19550376 0.058775432 0.024693368 -0.016704848 -0.16185118 -0.23817477 -0.08861299 0.14343421 0.013565178 -0.027272312 -0.047733355 0.008692616 0.018659849 0.029399239 0.1538914 0.22785413 -0.14682887 -0.19854553 0.007854344 0.030112853 0.22996268 0.007244224 -0.05512815 0.16252054 -0.0067174877 -0.16149299 -0.11730751 0.19640672 0.005140982 0.16529477 -0.07499418 -0.12584916 -0.10819366 0.122899294 -0.021549407 -0.031534452 0.109544985 -0.0018382876 0.1610824 0.033895362 0.097192675 0.16595256 -0.12066157 0.019657087 -0.104763225 0.15640914 0.087984905 0.27877286 0.18803008 0.05824954 0.20337284 0.08367167 -0.03475369 -0.09601944 -0.020107154 0.11246686 0.054369967 -0.13053586 -0.093275525 0.12825117 -0.09508872 -0.24117495 -0.07251293 0.21261416 0.044093665 0.057052 0.025037283 0.110932626 0.1441107 0.2227981 -0.17609204 0.23327757 -0.19644746 0.0919988 0.2284138 -0.20657873 -0.04213953 -0.1846388 -0.068839595 0.1039884 -0.005037824 -0.044697374 0.008635564 -0.016609663 -0.18410282 0.13538143 -0.12446693 -0.07166869 -0.027624823 0.2183417 0.09591446 -0.08128612 0.037982013 -0.114461645 0.21445602 0.10781758 0.1376115 -0.06596035 -0.07681669 -0.0034150013 0.0395991 0.14361598 -0.030333074 -0.017514743 0.047061447 0.061414156 -0.16361226 -0.035266943 -0.045327343 0.15600352 0.12221803 0.1131732 -0.03243983 0.094896145 0.072345115 0.025159515 -0.011565937 0.04956617 0.05150082 -0.011128032 0.0652991 0.12747435 0.15098235 0.01329919 0.25245813 -0.34198868 -0.004759196 0.2234101 -0.1022049 -0.19098288 0.017084323 -0.05035036 0.21067977 0.05038954 -0.038907606 -0.124102674 -0.0046831677 -0.055809334 0.0004018722 -0.05327089 -0.080531664 -0.058677334 -0.06112653 -0.06442655 -0.097363226 -0.017972544 -0.14652193 0.0119585795 -0.08712276 -0.2559407 0.06725473 -0.15379329 -0.07396383 0.07848518 0.042412017 -0.012912949 -0.15029693 0.20185651 0.25417742 -0.0107356515 0.10427503 -0.18391359 -0.07314508 0.05452329 -0.207945 -0.022128817 -0.01830434 -0.042847 0.079834126 0.047307543 0.0076756002 -0.26612985 0.046797957 -0.03836944 -0.056835804 -0.14912343 -0.13352929 -0.027454669 -0.15518582 -0.094686225 0.08293566 -0.08953906 -0.05039681 0.07336713 -0.07743271 -0.06852089 0.044453423 -0.037149787 0.056797434 -0.13660178 0.16316949 -0.07161544 0.06131098 -0.12295709 -0.2339747 0.24081549 0.07413545 -0.10263778 0.18457486 -0.013445949 -0.06781845 -0.17223082 0.080382384 -0.042364553 0.04362859 0.03672033 -0.095503815 0.12610659 0.013681495 0.051397715 -0.26486614 -0.013837048 0.19751003 -0.18550333 0.06496319 0.054978922 0.068766415 -0.09380193 0.016782386 -0.17345084 -0.07019285 -0.30621588 0.078257345 -0.17253911 0.06929163 0.0927616 0.1321196 0.048330422 0.15985009 -0.08872129 -0.10065352 0.1973852 0.037160017 -0.13068403 -0.039612018 -0.15955527 -0.009385111 -0.068285815 -0.19390807 0.07088091 0.07895191 -0.06727793 -0.08491685 -0.0057894243 -0.055465803 -0.0003593283 0.09625246 -0.28125024 -0.08270868 -0.08633543 -0.0921777 -0.21900725 -0.03127993 0.19167463 -0.11352716 -0.13673055 -0.0049453257 -0.11165956 -0.050558567 0.15412812 -0.105471894 0.14480582 -0.05479008 -0.09633383 -0.08278795 0.03989777 -0.08103585 -0.12020387 -0.19519232 -0.08620758 -0.015567551 0.024461558 0.0434122 0.072425 -0.11460844 -0.08773235 -0.063983925 -0.022984635 -0.07834437 0.07780869 -0.16655096 -0.13579938 -0.033208862 0.0109191425 -0.08616205 -0.092035905 0.028113686 -0.07381421 0.034788586 0.048394762 -0.13049382 -0.055585187 -0.1000443 -0.02611915 -0.14859977 -0.19317684 0.02567718 -0.085053995 -0.18330517 0.22940886 -0.0199638 -0.013704559 0.06286993 -0.17092863 -0.088249154 0.00078262 -0.081342265 -0.30663347 -0.17440422 0.18055709 -0.27580735 0.050129447 -0.009507941 0.064300016 -0.014417778 -0.010444705 0.05870367 -0.08022807 -0.02214591 0.08412772 0.22742039 0.044266846 0.051956866 -0.01918607 -0.13385862 -0.2673992 0.1284688 -0.24298643 0.10837379 -0.11571058 0.075754285 0.0041147713 0.029576749 0.15517054 0.16068918 0.115773216 -0.0002472659 0.06775935 0.17702231 -0.070782214 0.11163455 -0.2455921 0.062470872 -0.117828794 -0.20378895 0.06584724 0.2069172 0.011943055 -0.073136866 0.089255765 -0.19398329 0.15412593 0.23459232 -0.13125679 -0.20176984 0.004606606 0.0657507 0.25923073 -0.105393544 -0.03267001 -0.031169698 0.02739362 -0.00456491 -0.20799439 -0.10603111 0.15499765 0.09802951 0.073951825 -0.09284493 0.10611791 -0.03906982 -0.012517153 0.10940098 0.11772127 -0.12800337 -0.10233495 0.17739037 -0.060785677 -0.18531877 -0.034781866 -0.24922845 -0.03032857 0.124839336 -0.12427174 0.012183384 -0.0005679422 -0.03985923 -0.27621424 0.05365157 0.02332488 -0.113899186 -0.25216678 0.21766132 -0.09502451 -0.011052395 -0.14614615 -0.13505992 -0.030301122 -0.19256912 -0.009783589 -0.25038216 -0.017895665 0.03634198 0.013534925 0.08596178 -0.1399936 -0.03483663 -0.1257702 -0.2449399 0.13227709 0.16839068 -0.01589172 0.062136628 0.091766186 -0.10549995 0.037091933 0.095062785 -0.08658468 -0.12285678 0.15474032 -0.29419997 0.051241096 -0.001025096 0.019078897 0.09081178 0.06870898 -0.018110383 -0.07890586 0.14813553 0.09099891 0.053149376 0.2580879 0.06761932 0.24752517 0.14990899 0.019030642 0.19080102 -0.050342254 -0.06564704 0.029400969 -0.071617015 0.07982957 -0.06254683 -0.25790116 -0.0013248468 0.0912073 0.017615793 -0.10910266 0.014763705 0.19518106 0.25388068 0.23232608 0.05786035 -0.035787653 -0.1176096 0.021094298 -0.039922513 0.06877855 0.12566406 0.14478219 0.106884256 0.059072405 -0.07858106 -0.0950881 0.10848652 -0.16913792 -0.29191548 -0.21145841 -0.115413584 -0.15233964 0.18554315 -0.21512896 -0.06601446 -0.036025286 -0.061034698 -0.23733717 -0.16905877 0.002342055 0.16758738 0.17632176 0.06473581 -0.2121681 0.04701817 0.11456189 -0.044998527 -0.09944859 -0.07563522 0.19522806 0.030889047 -0.19093962 0.1682658 -0.0061277165 0.1272238 0.13555495 0.045483172 0.0715951 -0.053034108 -0.011065892 -0.013824793 0.05045782 -0.07756139 0.037069425 0.22844459 0.11201558 -0.10356998 0.13883926 -0.03914655 0.13843697 0.064872615 0.060064886 -0.01911891 -0.12944178 0.055112187 -0.062383793 0.05544027 0.22148933 0.017133648 -0.07141764 -0.06293268 0.03206378 -0.2267372 0.01120412 0.022421192 -0.049686868 -0.0020498338 -0.10867079 -0.106315345 -0.013269968 -0.08726662 -0.03966246 -0.07415337 0.10209935 0.088798225 0.14575551 -0.10212714 0.15831736 -0.10245159 -0.10988171 0.09526515 -0.11115069 -0.08339333 -0.17893082 -0.14720592 -0.20491898 -0.030419638 -0.05999814 -0.032523207 -0.14461395 0.087479584 -0.013578276 -0.28297517 -0.095964156 -0.07188267 -0.020116866 -0.018073583 -0.06389169 0.10509656 0.17221294 0.2089348 -0.09008477 -0.16937378 0.11729936 0.14239284 0.048453216 0.026424155 0.125356 -0.016757881 -0.021235835 -0.07009129 0.11202577 1.08910535e-05 -0.053727888 -0.24066032 -0.1461988 -0.076415956 -0.19238845 0.08476613 -0.007617872 0.17604767 0.027457727 0.24845442 0.20385553 -0.17910002 -0.09924403 -0.0103326235 0.13021949 -0.2687844 0.007930024 -0.2042472 0.062279686 -0.07071378 0.0155915655 0.050050866 -0.2688954 0.022783555 -0.040846758 -0.036266662 -0.088346176 -0.19139634 0.032239243 -0.14920805 -0.14102034 -0.013230792 0.078252114 0.007512543 -0.12410692 0.0989317 0.061804686 0.11743246 0.1309573 -0.17256154 0.15749882 0.040472303 0.085857846 -0.15460573 -0.08023583 0.18571316 -0.040582564 0.20333868 -0.033494435 -0.07152113 0.07539311 -0.03364095 0.042780217 -0.02705417 0.16360205 -0.052988283 -0.04985583 0.12330798 -0.00029210447 -0.08955359 0.17790341 -0.16416058 0.16211085 0.07338081 0.06348713 -0.08821671 -0.0043294 -0.0036541268 -0.08096687 0.1693145 0.02137738 0.019937657 -0.020648893 -0.03618127 -0.037285686 -0.0730342 0.14310433 0.16464737 -0.04692781 0.10078447 -0.173533 -0.056110088 0.124428734 0.033506602 0.041326992 0.092159614 -0.19218959 0.081102744 0.051110502 0.19804128 -0.13892233 -0.122843415 -0.19390191 -0.15834256 -0.011706538 -0.17368795 -0.12276834 0.21862955 -0.03030821 0.018832352 0.013200196 -0.048307475 0.19752999 0.07630212 0.13928862 -0.21670471 3.8848048e-05 0.051330786 0.15346338 -0.20592569 -0.03790515 0.24188457 0.1441534 0.17835872 0.14544289 0.13653551 0.1860629 -0.06849118 0.029029822 -0.06183879 0.042678483 -0.25300434 -0.012820007 0.10662981 0.05959849 0.06642808 -0.0475313 -0.01716916 0.03612547 -0.14191146 0.18299799 -0.2106633 0.0021275722 0.10984952 -0.10617262 -0.2242407 -0.0009964285 0.16233006 0.05746054 0.24297947 0.11699573 -0.16703579 -0.17599225 0.0038337992 -0.024780944 -0.025577558 -0.17159668 -0.037590683 0.012031407 -0.015355067 -0.07778737 -0.25566122 0.17644271 -0.003129066 0.16024247 0.02517422 0.24024245 0.07098193 0.018619504 -0.02744558 -0.062222715 -0.041197192 -0.10419212 -0.23048347 -0.15568595 0.2300675 -0.19924079 -0.027238155 -0.023974422 0.118074596 -0.019385062 0.046319366 -0.10877896 0.0025410098 0.03047696 -0.061436094 0.19576925 0.15511066 -0.044914335 -0.0012534033 -0.04490331 0.20360105 0.18226308 -0.17942283 -0.10138119 -0.052521866 0.15723309 0.26662064 -0.22736791 0.045530666 -0.22292766 0.059486046 -0.1603531 -0.17036286 0.057762325 -0.14742881 0.25347203 -0.12135221 -0.07276082 0.002015972 0.06472925 0.0041287364 -0.014029917 -0.084826216 0.13950068 -0.019068722 -0.0997502 0.04646268 0.15215495 -0.06476102 -0.03820563 0.05024109 0.11242302 -0.130386 -0.113025874 -0.15055507 0.034794834 0.14303057 -0.12424332 0.25920805 0.0024145148 -0.017825043 0.052870024 0.123523876 0.05022989 -0.10999467 0.10830072 0.06617413 -0.21702528 -0.11571381 0.0017846941 -0.075621665 0.010041908 0.2567451 0.16809723 0.20604303 0.018842254 0.038490117 -0.09926684 0.096934445 0.18621874 0.028415589 0.039683506 0.13472338 -0.09458848 -0.15024814 0.09853444 0.121984206 -0.108983316 0.026615785 -0.036872398 0.06171087 -0.22233216 -0.0070332736 0.059614297 0.033416748 -0.04569867 -0.043289416 0.052222695 0.03598014 -0.13487478 -0.27079016 0.032809347 -0.12518157 -0.015176184 -0.05832493 0.09025283 0.06757109 0.04257857 0.17291763 -0.03032247 -0.08337858 -0.055006288 -0.092825346 0.0657424 -0.15412709 -0.038425338 0.010585313 -0.1033346 0.0444627 0.048954926 -0.20660381 0.0869543 0.12470906 0.116423614 -0.056462135 0.057818957 0.24069881 0.09944758 0.12249953 -0.072889 -0.21164425 0.1812718 -0.00724097 -0.09150216 0.14040934 0.039394855 -0.096803196 0.075460345 -0.0032619447 -0.1386468 0.12681587 -0.17993057 0.11747292 0.104716495 0.0026388173 0.011920817 -0.17888525 -0.13450187 -0.24188033 0.1365236 -0.17889781 0.1705043 0.18058315 0.09476178 0.105844125 -0.05265619 -0.034084614 0.23634171 -0.078380756 -0.097026974 0.16949375 0.09806186 -0.15713835 -0.16910478 -0.19515966 -0.10519376 -0.116686225 -0.33010113 -0.17197768 -0.121551104 -0.06823326 0.1264782 -0.23789157 0.1982724 0.09256021 -0.08623974 0.08449506 -0.065063655 -0.14117065 0.019531237 0.058039907 -0.03696881 0.0010755573 -0.027630273 -0.21586457 0.04753845 0.15213414 0.109282926 -0.0068532573 0.035231 0.017645441 -0.1390602 0.08935095 -0.19656192 -0.10954533 -0.030810896 0.019564014 0.25649273 0.00017170512 -0.018028779 -0.25600818 -0.18769804 0.07976968 -0.24079478 0.11736625 -0.07491168 -0.24214238 -0.15677673 0.13926546 0.10338452 -0.16944942 0.07549767 0.01467269 0.020042002 -0.11159044 0.10898582 -0.021243947 -0.023503987 0.14518456 -0.012088247 0.13901742 0.14598921 -0.09059169 0.094867095 -0.050737806 0.065844074 0.019802252 0.11307288 -0.20283079 0.041781507 -0.06945422 -0.0138051165 0.122926235 0.077526525 -0.20924014 0.05410802 -0.029391844 0.06745212 0.04500153 -0.021700807 0.10530655 0.06224253 0.2430319 0.10870607 0.08714912 -0.11610749 -0.0052721193 -0.016509509 0.084846154 -0.026109712 0.13553591 0.10428027 0.22796586 0.236415 -0.15575713 0.22293302 -0.15244699 -0.12636116 0.23634078 -0.015009614 0.20163578 0.074861564 -0.06007492 -0.15813895 -0.060931806 -0.045625445 -0.105712324 -0.013320386 0.11141204 -0.22007413 0.08268571 -0.03800478 0.08891821 0.015508633 0.17432679 0.026778044 -0.063926764 -0.04175766 -0.27922484 0.03862787 -0.13839146 0.0028780294 0.061514225 -0.023689521 -0.1592197 0.0050926944 0.047023 0.13387014 -0.19665407 0.08218954 0.097328186 0.034407225 -0.06677491 -0.005708122 0.08608833 -0.09331303 -0.14207664 -0.0005759463 0.17505504 -0.027270345 -0.09024716 -0.030166676 -0.24877107 -0.2423737 -0.13807465 0.19761927 -0.14586857 -0.0867418 0.17427014 0.18091457 0.20387363 -0.011752027 -0.062449407 0.15629892 0.16507259 -0.07800151 0.05201646 -0.064796895 -0.09784663 0.04531605 0.2400682 -0.11318963 0.13664983 0.06819446 0.008258981 0.1501073 -0.19207865 0.014614581 -0.023506772 -0.15660426 0.21730624 0.027261602 0.08513343 -0.13811457 0.15173356 -0.11332014 -0.112166785 -0.09769712 -0.00448509 0.122069985 0.07420561 -0.09686529 0.070786156 0.18771572 -0.079763725 -0.02875234 -0.1607181 -0.03939234 0.16510765 0.076485105 0.14881025 -0.06956157 0.08927902 0.1745059 0.13937777 -0.028746862 0.056649745 0.14896317 0.16538545 0.17434588 0.065009 -0.22407848 0.051690195 0.01592836 -0.02346679 0.030116238 0.15128328 0.09923557 -0.036446054 0.008985665 0.022290226 0.07515959 0.2391742 -0.032220792 -0.20021352 0.017504232 -0.11458636 0.01741643 0.07220088 -0.14121336 0.16813003 -0.17377903 -0.09962419 0.12670447 -0.2316891 0.022598196 0.0043412456 0.062902965 0.20529325 -0.049746227 -0.14069381 0.07820987 -0.14306168 -0.068612464 0.038171466 0.14748898 -0.055246826 -0.048956566 -0.18678306 0.14982904 -0.0016669735 0.16901799 -0.0081067365 -0.14467975 0.08750164 -0.049287353 -0.24428979 0.07528847 -0.13743097 -0.010317688 0.13499616 0.19291292 0.1188647 -0.13463752 0.14072901 -0.26350647 -0.07715002 0.04683118 -0.07969492 -0.1001626 -0.072381884 -0.014167674 0.21264535 0.050369907 0.00037018876 -0.0011450705 -0.18945153 0.22319734 -0.092855185 0.099448174 -0.26142755 -0.20705175 -0.041744728 -0.04967153 0.1389076 -0.18901986 0.0016884857 -0.13607144 -0.07100665 -0.021166775 0.03602618 0.11013433 0.14820324 -0.14637657 -0.16828857 0.15473895 0.04756949 0.20002528 0.033398744 -0.01472252 -0.0706077 -0.023042794 0.24026899 -0.05072608 0.10533577 0.13896915 -0.13228802 -0.017819252 0.05009901 0.11355078 0.2575108 0.065701805 -0.035262145 -0.099772 -0.27543083 -0.1332783 -0.26351932 -0.06928931 0.020331407 -0.13245334 0.16145411 0.04412573 0.23445463 0.012667918 0.05060608 -0.13166834 -0.23882145 0.11159992 -0.043027088 -0.043181453 0.22509754 -0.18826187 -0.16380371 0.043594565 0.024745842 0.043971516 -0.103257336 0.14102063 -0.19107126 0.11436423 0.07573345 0.13998148 0.120207325 -0.24775484 0.24657758 -0.09155963 0.19835187 -0.0558817 -0.18704079 0.12536034 0.064515784 -0.13924387 -0.0214605 -0.1454009 -0.15450993 -0.0093976995 -0.21357988 0.10638019 0.1332173 -0.03044088 0.048266355 0.11138797 -0.069010206 -0.032148443 -0.009007781 -0.031125765 -0.045434244 0.08092842 -0.12400234 0.06142561 0.016741756 0.21063589 0.01185154 -0.063011006 0.10252367 -0.12808944 -0.107229546 0.068402536 0.030112525 -0.094222866 0.020115273 -0.03547196 -0.1031192 -0.007379024 -0.25493088 -0.17627718 -0.06863869 -0.022777237 -0.014666571 -0.049321502 -0.06377779 0.21919456 0.07227758 0.20016289 -0.15223426 -0.08049317 -0.109230995 0.01929872 -0.03074352 0.18684696 -0.14570966 -0.0037438886 0.10274112 -0.08115209 -0.011245606 0.22444135 0.21133631 -0.108342 0.025290951 -0.14700599 -0.20722543 -0.11710456 -0.203297 -0.10189772 1.0036165 0.9812342 0.9442912 1.0307357 0.99142617 1.0368304 0.9683688 1.0009102 1.0361047 1.0209825 0.9869895 0.99742407 1.0126024 0.9681918 0.99035126 0.99384326 0.014912135 -0.046005726 -0.030615948 0.038435202 -0.05141332 -0.003787173 0.04322026 -0.038441207 0.018809032 -9.458607e-05 -0.015946414 0.023390666 -0.0036487095 -0.03553946 -0.026369683 0.016780714 0.043694373 1.2389331 -0.50495976 -0.8474507 -0.6931312 -0.71813667 -0.30935657 0.8086896 -1.659503 -0.77377456 -0.3674851 0.16467933 0.23609161 0.0543259 0.117514566 -0.58266586 1.0403122 1.016819 0.4515168 1.1031973 0.5743389 0.6953895 0.50701654 0.72324 0.75671947 1.3912795 1.2703261 0.655573 0.7969654 1.1017908 0.38248467 0.96372294 0.04057559 0.06852045 -0.15959784 0.17804904 -0.065629855 -0.04617317 0.02932118 0.026850302 9.622464e-05 0.12425691 -0.09873799 0.006219435 -0.03360129 0.09662348 0.043019164 -0.036163256 -0.12499052 -0.06032234 0.108862735 0.015354575 0.1364845 0.08830523 0.028265124 0.11685188 -0.16228904 -0.08746262 -0.14043964 0.19800442 0.051806543 0.021639422 -0.10396045 -0.03569714 0.17898989 -0.038016357 0.09223045 0.1147903 0.08061692 -0.27182034 -0.100833 -0.09323074 -0.2627602 -0.14242767 -0.046099227 0.13192134 -0.20105584 0.07541853 0.0070029134 0.26848233 -0.05632933 -0.11808973 -0.06741019 0.15627657 -0.02978025 0.11177814 0.1959332 0.07997387 -0.07358645 -0.17763849 -0.08273346 -0.11029655 0.23825797 0.028364528 0.025208142 0.078282416 0.1835415 -0.07183438 -0.07448113 -0.16364038 0.06363149 -0.050127152 -0.15281305 0.0278702 -0.01268043 0.016391048 0.16464275 0.17938408 0.046953693 0.11199665 0.06304069 -0.028978113 -0.06129775 0.020286638 -0.05005442 -0.06045124 -0.0857153 -0.0021035832 -0.020712316 -0.14316285 -0.021335062 -0.0026066313 -0.14983873 -0.07550312 0.0028198897 -0.14931986 -0.16398416 -0.025401609 0.1336209 0.026364502 -0.16919683 0.16216367 0.10946351 0.2154507 0.12797235 0.23025768 0.10378954 -0.03279334 0.031347774 -0.14078175 0.10262707 -0.03830642 0.18449633 -0.098420665 0.03302554 0.07150904 -0.06021425 0.014468494 0.026156096 0.07830207 -0.030172171 0.18843624 0.20366848 0.011686549 0.15621571 -0.11300052 0.1433279 -0.06385561 -0.15829471 -0.00984783 0.11221187 -0.034939602 0.047452204 0.036176164 -0.07894498 0.1134425 0.07333889 -0.056861293 -0.08170783 -0.010829889 -0.17822371 -0.21109729 0.1305232 -0.017226703 0.12689525 -0.080747575 -0.18400428 -0.1650103 -0.2128647 -0.054955494 0.0013797369 0.07594369 -0.060727585 0.11542799 0.139659 0.0058340244 0.14048386 -0.18308385 -0.009457178 -0.07116534 0.032128558 0.09914747 0.026121557 -0.066260405 -0.11980261 0.12505749 0.038941063 0.23079151 -0.08979641 0.13320073 0.06247396 0.18531106 -0.10596201 0.08601023 -0.16047165 0.25344902 0.032579478 0.0116342865 -0.27324215 -0.1966297 0.22557262 -0.03148225 -0.19588113 -0.004094525 -0.07672677 0.14099705 -0.10094448 -0.00866427 0.008270168 0.06377531 0.23218636 -0.098366044 -0.16504219 -0.094532445 -0.11242722 0.21785107 0.068207905 0.010581237 0.05771351 -0.1580947 0.04393633 0.07615757 -0.051273305 -0.042151436 0.079223365 0.076114364 -0.08146971 0.09570975 -0.12176678 -0.01360387 0.0932759 0.29028755 -0.22321974 -0.03934689 0.12051534 0.1258132 0.09071821 0.15688962 0.06746022 0.028385011 -0.25208598 -0.008443913 -0.0189654 -0.20848633 0.17301472 0.07664245 -0.07463322 0.18029675 0.111431755 0.19035901 -0.06507843 0.17820941 -0.02280646 -0.07277751 -0.25767604 -0.07019762 0.049476106 -0.007849086 -0.064047374 0.087227665 0.100839354 -0.019187406 0.13390827 -0.02731703 0.13970487 -0.012868466 -0.06024616 -0.29619494 0.04783298 -0.18246868 -0.0021792299 0.035769206 0.09386318 -0.007996071 0.10790546 0.24468653 0.04402298 -0.086879075 -0.066641405 -0.09813831 0.014805682 -0.08661015 0.12680823 0.15489571 -0.041052207 0.16247216 -0.14182234 -0.12004191 0.14018063 0.028627677 -0.0519618 0.06840911 -0.07191301 0.05068426 0.1482778 0.20390695 0.00016895439 -0.06626177 0.021993162 -0.1615265 -0.14671709 -0.054457195 0.018395096 0.014008176 0.10546759 0.015535184 0.11873009 0.037567925 -0.055209797 0.09871482 -0.09723823 0.116158545 0.108567014 0.04362754 0.044746697 -0.05748994 0.09859374 0.25282693 -0.07991945 -0.15504073 0.23412572 -0.10269998 -0.2230732 -0.17191271 -0.031450044 0.22892246 0.11384076 -0.033115137 0.21117109 -0.016836256 -0.120159514 -0.011260182 0.13161238 0.0043727187 0.053168286 -0.07833777 0.01663043 0.010871155 -0.060850125 -0.026395978 0.03144901 0.12293453 0.20674196 -0.0012869856 0.009360344 -0.098149054 -0.025036627 -0.08216178 -0.041680478 -0.0963637 -0.20320185 0.15565136 -0.045369107 0.113926835 0.02358943 0.13874778 0.014804802 0.0705199 -0.008051173 -0.03234131 0.008165349 -0.17774501 0.03629307 -0.032439608 0.09908182 -0.088893786 -0.054508068 -0.1536805 0.10959813 0.14516741 0.12108498 0.19750528 -0.01655767 -0.106731236 -0.03864518 0.13315725 0.04825155 -0.018005667 -0.12283433 -0.18158554 0.10798062 0.03536775 0.13451086 -0.14269565 -0.18532524 -0.034911014 -0.09658818 -0.19862327 0.08112705 0.13146955 -0.083990894 0.019455152 0.24301188 -0.08797285 -0.09736506 -0.1318624 -0.06833741 0.08383018 0.07833947 -0.1228286 -0.07212455 -0.052067988 -0.04316102 -0.07282105 0.18113331 -0.006320144 0.09883062 0.12926349 0.07088382 0.29291207 -0.22590683 -0.12438633 0.08934928 0.103462666 0.03381119 0.03236341 0.059777588 -0.05510569 0.09119208 0.24260587 0.0058940994 -0.042230584 0.014736303 0.10746042 0.17442963 -0.09505851 -0.06662212 0.0012936348 -0.102333814 -0.015531926 -0.017030811 0.11546857 -0.16370918 0.0039341887 0.064331844 -0.14795958 0.033166863 -0.06610389 -0.2569492 0.16532001 0.0700116 -0.06571135 0.10349489 -0.1095714 -0.050520744 0.2034004 -0.07468161 -0.09299521 -0.052540366 -0.22276449 -0.08935357 -0.26032206 0.10390077 -0.17692319 0.066660315 -0.11257888 -0.008063427 -0.008998258 0.114748925 0.083961904 -0.05199566 0.10624331 -0.016642712 -0.04634834 0.040185582 0.18027633 0.11427758 -0.1669415 -0.027451007 -0.011165602 0.099488474 -0.13715754 0.037169073 -0.0147465365 0.04731028 0.011558651 0.034239594 -0.1970398 0.25345126 -0.057832643 0.0013191779 0.012851095 -0.05313182 0.027324231 0.15707192 0.24680665 0.24713083 -0.005861215 0.098708466 0.15290542 0.08646883 -0.22069699 -0.19750309 0.1872214 -0.20515452 -0.13491961 0.020897953 -0.19086653 0.06877104 -0.1944236 0.2088197 0.11141173 0.04288807 0.024411915 -0.09022845 0.28597304 -0.054959945 -0.032189656 -0.04909384 -0.1900041 0.039478514 0.055108014 0.14576057 -0.10971713 0.06544498 -0.14889766 0.11477094 0.006444552 -0.033548042 0.022215497 -0.23206282 0.13235745 0.03897744 -0.23455395 0.06446895 -0.06742651 0.11386836 0.20498616 -0.08994339 -0.10952131 0.12155255 0.100121655 -0.21604307 0.026260624 0.10156951 0.14225477 -0.105144724 -0.12243606 0.17226811 0.0014752215 -0.112394795 0.055369835 0.086006865 0.1906507 0.19275804 0.11676902 0.050566103 0.01012157 0.031111524 0.018466357 0.016919784 0.054567583 0.10035262 0.05345262 -0.17432998 0.25271955 0.25766644 0.09658169 0.13223062 0.018093264 -0.21606348 -0.08319462 -0.017031537 -0.10699039 0.088757366 -0.060833838 0.06300147 -0.04358092 0.010665529 -0.25722033 0.05346126 -0.1047279 0.19595373 -0.053863194 0.13605817 0.26193383 0.035724767 0.06494484 0.039282635 0.2686246 0.074330255 -0.053620204 -0.17510444 0.15772727 0.14767693 0.20728032 -0.1614675 0.1324936 -0.15539183 0.028640067 0.08315416 -0.17611931 -0.13703437 -0.089920454 -0.2177986 0.006344045 0.04882103 -0.08608418 -0.016720405 0.1665717 0.06548441 -0.13737072 -0.12816337 -0.18683527 0.2018646 -0.015216384 -0.08731946 -0.005432337 -0.05421742 0.0046091666 0.18500091 0.09424589 0.038628753 -0.09080845 -0.12312545 -0.0697811 0.09300447 0.05227344 -0.05113903 0.07812224 0.12827276 -0.05446142 0.23943664 -0.08527463 -0.0192154 -0.0815277 -0.15484557 0.08718239 -0.08325279 0.032294624 0.032696385 0.13928719 -0.027689217 -0.10052766 0.021855202 -0.21248798 -0.009382785 -0.0089078 -0.042474844 0.1516989 0.20435658 0.0068107266 0.061606474 -0.10538658 0.03890771 -0.24625456 -0.06964797 -0.030168857 0.019758042 -0.1724463 -0.04533525 -0.112607114 -0.047219027 -0.19169675 0.26156968 -0.19184567 -0.022690848 0.064451374 -0.08522336 0.21863362 0.22015879 0.08930818 -0.10914584 -0.075896226 -0.06960934 0.1187937 0.008243433 -0.23804401 0.0632121 0.15070537 -0.01785407 -0.10231526 0.004793716 -0.20242319 0.07904263 0.25031278 -0.09749576 0.24794857 -0.03974041 0.018056395 -0.03248136 -0.02221478 -0.017454125 -0.10478838 0.047081884 0.06708703 0.17260157 -0.0761513 0.011380854 -0.18968254 0.030997772 0.17038395 0.23292589 -0.06192071 -0.021485852 0.15122451 -0.17793626 0.068664104 -0.019457366 0.032854445 -0.101628505 -0.21733154 -0.028589781 -0.066800304 -0.017162204 -0.17060766 -0.21371712 0.019635225 0.058359426 -0.12226203 -0.0024614558 0.1085118 -0.015691908 0.12664038 0.05220521 -0.03079277 0.115254045 -0.01293457 -0.096310675 0.114769496 -0.18633401 0.19197641 -0.08517822 0.057469476 -0.027579784 0.16577582 0.25297958 -0.11277421 0.08020123 0.23722483 0.101044625 -0.004313042 -0.14540064 -0.10910082 -0.18376303 0.07508563 -0.026369127 0.25369754 0.07372643 -0.008352365 0.16392899 0.21533738 0.011522312 0.19101599 -0.17537388 -0.13534573 -0.0608836 0.14747061 -0.09576617 -0.035500355 0.08021839 -0.16447395 -0.11574106 0.08167104 0.09806932 0.06639489 0.04695211 0.020623108 0.070792444 0.0961773 0.07902202 -0.052269485 0.016462915 0.08848588 -0.07345566 0.14898384 0.0061695883 -0.017459013 0.016969023 -0.048928663 -0.14196292 -0.19619596 -0.15244924 0.019081304 -0.09965849 -0.13524841 -0.0031068404 -0.0013259166 0.080321305 0.2570244 0.14267306 0.13168758 -0.10253874 0.07655709 -0.05168475 0.14128053 0.010061915 0.04758325 -0.07187391 -0.14529046 0.08468722 -0.0093602305 0.02340882 -0.10059594 -0.16079672 0.19686453 -0.0038975382 -0.22709182 -0.16914238 0.066999994 0.015887093 -0.04619188 0.04789025 -0.14427006 -0.074736744 -0.030336889 0.031312488 0.16896603 -0.018766839 0.19631904 0.05541332 -0.18922327 0.2582636 0.23408309 0.14086331 0.070391744 -0.25211716 -0.06892696 0.02429837 0.12624843 -0.029787522 -0.286081 0.019587083 -0.07908642 0.17873384 -0.1399671 -0.116982676 -0.039049573 0.006650322 -0.040658463 -0.16828129 -0.08427074 0.087761275 -0.075927 -0.00064732396 -0.044554878 -0.13847044 -0.20693062 0.06612559 -0.23775873 0.1357392 0.02557755 -0.11478104 -0.034534805 0.071972914 -0.06119593 -0.0602974 -0.08280138 -0.19427502 -0.20384832 -0.23543045 0.2063384 0.037088428 -0.12204242 -0.01252145 -0.22960088 0.05341058 -0.048256237 -0.07725756 -0.027561322 -0.118733376 0.014493359 0.10136455 -0.17172468 -0.09040847 -0.05165852 0.1764572 0.1514671 0.28438622 0.057366982 0.039015003 -0.1401757 0.0013496241 0.04776506 0.11497945 0.005035366 -0.09085369 0.12370953 -0.18488392 -0.026766038 -0.07022446 0.004610985 0.048762314 0.09290744 -0.033956826 -0.041829437 0.05347328 -0.14977606 -0.051797926 0.04686567 -0.26025218 -0.1496431 0.14945973 0.06598789 -0.16672386 0.14199717 0.1892374 0.28524584 0.09653419 0.005567995 -0.13149096 0.025657462 -0.114186965 0.13529707 -0.13802849 0.060957916 -0.16673952 0.17671025 -0.07546988 -0.020888325 0.06416046 0.07296035 -0.09160126 -0.007845465 -0.15353088 0.007978149 -0.050955582 -0.11938468 -0.052954804 0.07932573 -0.14939146 -0.06980102 0.11585465 0.15894668 0.0763114 0.03311858 -0.013002273 -0.0056449594 -0.0032487996 -0.017184183 0.016777057 -0.1619927 0.10851916 0.13798441 -0.089246035 -0.06792123 -0.043516193 -0.01998553 0.01997189 0.21770798 0.043755412 -0.19167942 -0.21378711 -0.13509262 -0.023724088 0.023019271 -0.23478393 -0.198471 -0.14499287 0.2165885 -0.03263708 -0.06257259 0.19453427 -0.16273528 0.029828133 0.089966565 -0.06778929 -0.054534853 -0.18331774 -0.17447442 0.038480636 -0.06808132 -0.09564019 -0.2355609 0.006292957 -0.12853879 -0.033643954 -0.14405261 0.06785882 -0.11038928 0.08982829 -0.008061587 -0.058011506 0.06877147 -0.15373553 -0.013578756 0.15353884 -0.021893738 -0.21776024 0.15650289 0.075489946 -0.062261805 -0.019750377 0.027074715 0.030125739 0.048251122 -0.028488753 -0.049393136 0.02939464 0.050551116 -0.1111285 -0.1215314 0.03774487 -0.06294676 0.019970931 0.0060579916 -0.10573104 0.033606138 -0.017732278 0.116044804 0.09196905 -0.0042086015 -0.22407769 -0.12901255 0.05443682 0.20234966 -0.17238404 0.21082905 -0.08104816 -0.046651818 -0.027439391 0.049603272 0.06606512 -0.01901728 0.19850005 0.05273929 -0.048174664 -0.08527257 -0.22193262 -0.0921517 -0.096144 0.21764322 -0.21246648 -0.09791556 -0.027820066 -0.14820988 -0.071190745 -0.06912452 -0.01635775 -0.06244717 -0.01824667 -0.013387748 0.12648115 0.117261186 -0.074191526 0.21064554 0.1519125 0.1688149 0.077140026 0.029221242 -0.24394631 -0.09037105 -0.14853954 0.061300833 -0.07823656 0.3064269 0.14034718 0.08678289 -0.13747568 -0.0034401605 0.09326626 -0.16771573 -0.005793924 -0.012303257 -0.02281397 -0.052716 0.19869825 -0.13134006 0.22283967 0.01804852 0.15582475 -0.07518808 0.04463952 -0.26491058 -0.00910713 0.04844484 -0.031283185 0.036343005 0.21295044 0.007974587 -0.17525354 -0.16628246 -0.04469058 0.08300715 0.04022547 0.122162335 -0.2443519 -0.0046787076 0.05098961 -0.065438814 -0.049126793 0.10302166 -0.17433174 -0.278656 -0.15114687 -0.12333636 0.10710361 0.07931665 0.036025636 0.015675202 0.22233951 0.10959637 -0.21065208 -0.20135586 0.022882493 0.028828435 -0.214229 -0.16266829 0.06720959 -0.07154846 -0.03950312 -0.08280686 0.2758969 -0.23980628 0.18236145 -0.016004588 -0.04324718 -0.03085815 0.06497539 0.07344289 -0.097424865 -0.020159628 0.033386942 -0.06513334 -4.9898714e-05 -0.018615693 0.066470936 -0.0122527955 -0.2012552 -0.074967064 0.03362531 -0.16191217 -0.15116395 0.088991605 0.047144443 -0.20729391 0.037648816 0.13269532 0.055901326 -0.020159334 0.04164243 -0.16681564 -0.14246151 -0.095710635 -0.070018984 -0.091954075 -0.03992709 0.07059376 -0.14032008 -0.122227706 -0.16218 0.09973329 -0.23070496 -0.0032223666 -0.25925463 0.009351125 -0.0059987796 -0.1472053 0.06291212 -0.15310387 0.038529236 -0.05051237 -0.03784262 -0.023764992 0.18137011 -0.02623807 0.03549161 0.029573724 -0.033056166 -0.0812832 0.17964183 -0.059081595 -0.16612685 -0.30806783 0.039875537 0.22370107 -0.12117006 0.10886134 0.042860314 -0.15645742 -0.23249681 0.13937123 -0.0983137 0.028573325 0.13784942 0.22418405 -0.07550083 -0.14066821 0.21835394 -0.03221106 -0.18345472 0.025203919 0.075415805 0.09322109 0.12832113 0.017396092 -0.24110161 -0.0024711697 -0.046091665 0.0066536106 -0.09728803 -0.21742973 0.09592942 -0.007927844 0.20213376 -0.0093339905 -0.10280455 -0.02308969 -0.117254995 -0.09914139 0.0942673 -0.011733351 -0.15233906 0.14275892 -0.120103225 0.0014251379 -0.20423506 -0.027434526 0.004226771 0.007523006 0.07855436 0.09536524 0.077582255 -0.14374019 0.059229717 0.093330815 0.0082553765 -0.06996097 -0.06260407 -0.07677387 -0.03028499 0.261989 0.086617954 0.101924 -0.1559857 0.17994595 0.0062017385 -0.17154288 0.1395785 0.20061707 -0.051928747 0.19530427 -0.1676548 0.055273622 -0.23888925 -0.17009336 0.18473013 0.0080848485 -0.045876447 -0.036831878 -0.21944685 0.1007919 -0.105489925 0.006009884 0.040286757 0.054764252 -0.020228842 -0.14685743 0.16930386 0.22715674 0.20549482 0.07476237 0.028847273 0.0545386 -0.17556973 0.053047396 -0.28202567 -0.15348724 -0.13516763 -0.13951455 -0.19779827 -0.07922526 -0.15717232 0.06538783 -0.12293159 -0.077960126 0.060092866 -0.03835286 -0.17840342 0.25738344 0.2387772 0.23643817 0.104522325 -0.18839674 -0.21710883 0.21643157 -0.14492647 0.055312276 0.20379364 -0.10999458 0.085544676 -0.16926087 0.19747601 0.023524314 -0.23506254 0.060325462 0.112085424 -0.041517504 0.15832478 -0.101026036 0.11860409 0.031524915 0.03330928 -0.07323812 -0.037309162 0.096563324 0.05067328 -0.06336636 -0.17175801 -0.015708162 -0.17745237 0.0935749 -0.083785 0.06443063 -0.01127417 -0.25503048 -0.0050883363 0.01199027 0.008950141 0.060133833 -0.09210036 -0.047841184 -0.05343122 0.12517275 -0.03609601 0.037137665 -0.045401216 -0.01294548 -0.094468534 -0.00569301 -0.010584805 0.10982654 0.08861237 -0.043949373 0.09966143 -0.106886275 -0.092223406 -0.14469166 -0.098076984 0.023523595 0.10139666 -0.0019788027 -0.09002409 -0.24120899 0.16888082 0.029863173 -0.013575259 0.07138081 0.027453797 -0.11643644 -0.116938494 -0.1354616 -0.05838097 0.051761925 -0.1454172 0.026903776 0.09849432 0.06114935 0.10420304 0.06268257 0.20810753 -0.25245687 -0.08316394 -0.040591538 -0.0005878214 -0.1759959 0.20955463 -0.09337044 -0.013644115 -0.035297915 0.0039476627 0.0035830333 0.14760019 -0.035458833 0.046310723 -0.12556446 -0.037885323 0.22082983 -0.085982084 -0.23230268 0.12439842 -0.11151526 -0.0030039747 -0.057198998 -0.09278746 -0.13083781 0.060226545 0.03672324 -0.021073392 -0.04237235 -0.15023005 -0.1288256 -0.15365915 -0.22409973 -0.06112601 0.11578116 0.16590275 0.047243048 0.11739316 0.11741697 0.19726087 -0.04298742 0.18425424 0.23071952 -0.053905066 -0.06798751 -0.12770088 -0.06654049 -0.25236845 0.08771045 -0.0987004 -0.15206903 0.08725341 -0.015426589 0.062217914 -0.047535952 0.052229714 -0.07851605 0.064487986 -0.085026 0.008460985 -0.086866766 -0.16105136 -0.11737025 -0.22304441 -0.21410505 -0.14540653 -0.07186627 0.042409383 -0.05502674 -0.11507815 -0.27255857 -0.06891236 -0.27478448 -0.22082494 -0.07595566 -0.08690009 -0.09313352 -0.03659804 -0.057462737 -0.09349239 0.113858394 -0.016477851 0.089291446 -0.14916341 -0.16857739 -0.17732763 0.023452044 -0.105501816 0.003104453 0.15802386 -0.09957059 -0.1641863 -0.02645311 -0.03070034 0.028142147 -0.25896713 0.1865675 0.04840002 0.00926433 0.08957635 -0.18251237 0.05084048 -0.15204026 -0.10784957 0.13586862 -0.13827793 -0.12712136 0.036609054 0.12353599 0.15306008 0.19851848 0.11412732 0.014880913 0.12455667 -0.07308923 -0.21029465 0.12870432 0.1730448 0.07000843 -0.11302443 0.0032059753 0.15110987 0.013319438 -0.12166393 0.061232522 0.02739114 -0.15027903 0.12884995 -0.07522721 -0.16855995 0.0003438985 -0.12329849 0.0747974 0.13169047 -0.17444013 0.18577749 0.15415044 -0.0043271184 0.16291381 0.10716932 0.039379716 -0.07117261 -0.06738296 0.33926463 0.082791746 0.102191314 0.20755573 0.0303275 0.16659077 0.1668817 0.14064397 -0.23413952 0.022458743 -0.04957199 -0.13898666 -0.080823146 0.10756904 0.065939024 -0.06452114 -0.09627578 -0.18266322 -0.03795808 0.21751042 0.116628535 0.14833745 0.096787795 -0.11986671 0.2203713 -0.056588534 0.09656434 0.10806292 0.13692245 0.13478936 0.013574677 0.020132117 -0.032562535 -0.05191364 0.2171663 0.124941 -0.05704514 0.21732076 -0.030638587 0.08310693 -0.2255787 -0.10238482 0.09565293 -0.010154657 -0.11594361 0.10543444 -0.057992484 0.06999969 0.21318395 -0.12354514 -0.08840869 -0.060180396 -0.028282419 -0.036328662 0.0037749375 0.08399517 -0.26186672 -0.024599636 -0.06914183 0.089783914 -0.01822294 -0.112723745 0.07821864 0.027218912 0.061666477 0.16512004 -0.028957164 0.23431902 0.13975826 0.045821775 -0.000702221 -0.07764412 -0.12020515 0.08703433 0.2016507 -0.27852142 0.08066172 0.09595168 0.16669816 0.1347564 0.07331334 0.20970845 -0.13486268 -0.118335456 -0.13747491 -0.16007912 -0.18325412 0.11961637 -0.015421203 0.06569537 -0.043713327 0.06013323 0.10106385 -0.10477965 -0.11265727 0.10717359 -0.21118544 -0.0741615 0.08792959 0.008742399 -0.28682694 -0.10015288 0.18053831 0.10459183 -0.15436782 -0.23554572 0.014595116 0.02344141 -0.0928998 0.033427924 -0.16723669 0.15625596 -0.0987889 0.04487582 -0.23875524 0.082972154 -0.19052045 -0.20413259 -0.2091719 -0.012638931 -0.16480568 0.0022659544 0.115968585 -0.055596303 -0.014700876 -0.10251065 -0.2982919 0.058853254 -0.1264537 -0.1199586 0.23962022 0.10575035 -0.2434263 0.14281487 -0.031583387 -0.14923067 0.13060397 -0.2801048 -0.03358828 0.26036486 -0.027305499 -0.1469051 0.12891105 0.016794328 0.042994697 0.12551664 -0.07062678 -0.10148628 -0.1202301 -0.005912674 0.25602338 0.010395813 -0.07539491 -0.109068274 0.008148093 0.20712072 0.077987954 0.040342294 0.15900229 -0.0828776 -0.0432656 0.039435036 0.0027057834 -0.06596872 0.00058907055 -0.099059254 0.12971134 0.10961152 -0.0519617 0.23064984 -0.15470192 -0.0033187934 0.21654026 -0.054474503 0.097831585 0.061411694 0.015792405 0.19792087 -0.028430864 0.03310935 -0.113435425 0.020473586 -0.07616228 -0.06349857 0.033621237 0.05318305 0.022503046 0.1410139 0.04463915 -0.08918579 0.031926386 0.046986304 -0.011557089 -0.114263 0.02235199 -0.002373815 0.17970353 0.007228838 -0.215575 -0.10852901 0.19066149 0.12435546 -0.07066812 0.18035688 -0.15257837 0.09492118 -0.1775901 0.02078356 0.0977842 0.09538294 -0.17397276 0.03168597 0.04667048 0.2496838 -0.04960476 0.04126435 0.021154948 -0.0304425 -0.074864745 0.08338512 -0.13636234 -0.0999501 0.02906468 -0.062101588 -0.1473682 -0.0044076834 -0.012451852 -0.024011573 -0.30795473 0.016129594 -0.07132419 -0.12712088 -0.02280503 0.20460081 0.102801494 -0.033390593 0.016624045 -0.069011316 0.06365227 -0.036481403 -0.15716659 0.0117368605 0.20594619 0.20236377 -0.10285741 0.11661556 0.00037097596 -0.07043096 0.023551306 -0.029977199 0.11858282 0.045338765 0.099745534 0.0015996798 -0.16005844 -0.025939034 -0.027547047 -0.13779499 0.14803205 -0.0029182192 0.12732184 -0.18588485 -0.0062244083 0.102846816 0.101898484 0.01150226 0.19909285 -0.21539773 0.072005615 -0.05194207 -0.038292665 -0.09324758 0.03688207 -0.10908605 -0.02457598 0.14360948 -0.022158321 0.23289357 0.1821847 -0.13044158 -0.01991524 0.10874758 -0.020465046 -0.21368012 0.09442705 0.2143426 -0.070119865 -0.26427224 -0.025037205 -0.13890454 -0.16147697 -0.032255534 0.0462884 0.07067818 0.22240993 0.053977106 0.15992974 0.13049495 0.24156283 0.12989506 -0.07926945 0.066887416 0.16524555 -0.27633405 0.018785447 -0.057058312 -0.11594885 0.24993926 -0.05481278 0.01882911 0.04714124 0.17249402 0.096930794 0.035907477 -0.006226521 -0.110377364 -0.1016793 -0.20202419 0.0104749035 -0.0023942743 0.05269594 0.0012621586 0.20150307 0.11907385 0.029537674 0.058665767 0.009098829 0.054116715 0.24056092 -0.17457241 -0.10531116 -0.06743661 -0.109599344 -0.14222074 -0.15365595 -0.19038424 -0.29057232 0.080984525 0.16894954 -0.17940833 -0.073882796 0.03264078 -0.24125558 0.12840278 -0.28148085 -0.15018542 -0.02471529 -0.015757553 -0.21133102 -0.022774322 -0.16673209 0.18878682 -0.07282977 0.09444075 -0.0042338152 -0.0016788016 0.13901964 -0.1727175 0.016989237 -0.092904665 0.18724443 -0.050862715 0.04513017 0.16039139 -0.21124707 -0.20994228 -0.0028530443 0.15063666 -0.04748206 0.06748854 0.090684496 0.17217965 0.22165185 0.109799035 0.094391696 0.06888702 0.13788645 0.20511892 0.054949373 -0.05211907 -0.22264883 -0.20669354 -0.086513214 -0.009268248 -0.08809032 -0.21233593 -0.058875646 0.18537177 -0.09325656 -0.20219065 0.041687723 0.2232051 -0.23220626 0.018534385 -0.003269568 0.06052125 0.048941113 -0.15480131 0.08860329 0.14676699 -0.2047087 -0.15853786 -0.045731734 0.25502467 -0.036645528 0.25497743 0.03938387 -0.10778364 0.11250312 0.082796715 0.0786278 -0.11545951 -0.029562611 0.06338144 0.014849196 0.16559514 0.06894222 -0.0678422 -0.025432672 0.12734443 0.14308868 0.11661928 -0.2872619 0.20292492 -0.035826534 -0.07891558 0.031042745 -0.122245744 -0.23762314 0.023948349 0.1683877 0.045523107 0.11755502 -0.07268384 -0.14248408 0.2177569 -0.1696572 -0.006497445 0.010097348 0.1335067 -0.07468021 0.16747333 -0.030226808 -0.103801414 -0.09592434 -0.04587257 0.05629873 -0.054537833 -0.07450466 0.03583562 -0.2221122 -0.14871943 -0.14560747 -0.12302668 -0.17440987 0.20815326 0.17568971 -0.2894038 0.17894387 0.063089535 -0.09241766 -0.03760358 -0.14367872 -0.09853487 0.12703162 0.046065718 -0.24371225 -0.14973482 -0.05093342 0.1779292 0.049786963 0.17938176 0.004761174 0.016263511 0.07697913 -0.12914205 0.014025143 -0.0027079827 0.077397436 0.11645732 0.2027083 -0.013001701 0.01619226 0.11257491 -0.106288254 0.08628737 -0.24968918 -0.06580088 0.21264558 -0.26677427 0.019059831 -0.12699567 0.038400866 -0.19902542 0.08380385 0.13710187 0.06896715 -0.07244996 -0.2658163 -0.08278682 -0.23047233 -0.0769766 0.024445327 -0.13894267 -0.0321089 -9.829749e-05 -0.1351971 0.022200143 0.16479802 0.12908599 0.08682837 0.004029969 -0.07211434 -0.056288194 -0.014621144 -0.18225409 0.0054688584 0.18361576 -0.00025549266 0.21539396 0.002813322 0.17788628 -0.15033762 -0.1635811 0.19680102 0.08857436 -0.033120006 -0.024503162 0.11133564 -0.032075595 -0.18542969 0.06803059 -0.113946356 0.11129983 0.06536447 0.2072743 0.04389553 0.03159548 0.07398394 0.20872468 0.0007612942 0.14900278 -0.16415618 -0.07855509 0.13203436 -0.09989814 -0.12877773 -0.09047475 0.11051631 -0.038193274 -0.2452999 -0.032269407 -0.16196816 -0.07301991 0.09544107 -0.113482356 0.16667612 -0.07274463 0.14994054 -0.19055764 0.026075965 -0.07460511 0.100944005 -0.07727436 -0.1239631 -0.1625146 -0.17989825 -0.037663188 0.022974243 -0.019795053 0.16098109 -0.11576612 -0.15930516 0.079162695 0.18263999 0.021865504 0.12872924 0.012020769 0.19438621 0.19008344 -0.16330168 0.06591623 0.0067628985 0.04524642 0.2316715 0.15936096 0.17068577 0.041129146 0.076160535 -0.06756907 -0.1334102 0.043660194 -0.07593676 -0.19666412 -0.06573779 0.08565654 0.071275294 -0.018821273 0.0700168 -0.035100527 -0.038059376 -0.031116966 0.11750384 0.085431606 0.07073731 0.0176953 -0.12567472 -0.17850652 0.09990256 -0.079292215 0.11676916 -0.06358557 -0.04066353 -0.027844792 -0.053221848 0.029471327 -0.15406749 -0.09328197 -0.083703026 0.010165848 0.04524232 0.033676676 -0.07251296 0.05464801 0.008417295 -0.0029777952 0.12735778 0.2064075 0.1374722 -0.013494667 0.071317844 0.2499553 0.014801229 0.082031235 0.13101254 -0.20327972 -0.10796859 0.1357569 0.08520984 0.035744365 -0.17967051 0.013957044 0.04243259 -0.13763724 -0.19022268 0.20130959 -0.11168166 0.05404718 -0.09861044 0.15343016 -0.13341416 0.17437445 -0.19005843 0.15195124 -0.01677377 0.115085304 0.07985588 0.03618246 0.006054914 -0.13006712 0.16039433 0.054516707 -0.03602842 0.09550528 -0.022100063 0.09172971 0.0005145444 -0.11407654 -0.06807406 -0.20738578 -0.10708352 -0.16582194 0.14342569 -0.14580987 0.033077 0.039352156 0.05822909 -0.029238068 -0.036238734 0.010396711 0.010088126 0.17395435 -0.07531586 0.1533408 0.035096552 0.18853457 -0.108238 0.14836061 0.05702848 -0.075637035 0.030546138 0.06010638 -0.023782136 0.2067015 -0.07290615 -0.09639217 -0.033010818 0.18694597 0.0049774046 -0.034002747 -0.059238836 0.041734293 -0.1805035 -0.13299355 0.11046552 -0.14547808 -0.28103957 0.20198895 -0.107077055 -0.21861386 -0.045437977 0.20062718 -0.04428987 0.09017657 -0.075878404 0.01382481 -0.09324415 0.18057989 0.15217975 -0.25703612 0.07104943 -0.07951987 0.13954571 0.060650878 0.20732431 -0.027590683 0.23534477 -0.17836037 -0.01962925 -0.05830783 -0.0025685865 -0.07329302 0.050523907 -0.013088535 -0.1728324 0.09440691 0.13025932 0.310214 0.16202211 -0.14983448 0.116890274 -0.16888313 -0.18184757 0.09369511 -0.094669625 0.16667324 -0.14786302 0.1879301 0.052583877 -0.029532356 0.13286039 0.05919782 -0.061704777 -0.16590427 0.09937379 -0.031810835 -0.055038814 0.03650364 0.05327636 0.09646194 0.27239752 0.061352007 0.08210158 -0.040041074 0.110714465 0.19506827 0.13018519 0.06032826 -0.091966785 -0.044954658 -0.0069423136 0.12049521 -0.14633499 0.18395329 -0.19135466 0.04749933 -0.015128713 0.09644103 -0.050029464 -0.19444056 0.1651916 -0.060099255 -0.0847077 -0.10580149 -0.09489653 0.063347 0.018693244 -0.12727486 0.050022554 0.04393962 0.17065711 0.117399685 -0.27928773 0.17035392 0.077432975 -0.0718487 0.15247859 0.21519329 0.13452634 0.04203976 -0.13175564 0.03374297 -0.07577544 -0.055087358 0.051144354 -0.11424424 0.09060611 0.0155294705 -0.027149925 0.038344987 0.014755147 -0.031585366 -0.14303404 -0.0744714 0.03828787 -0.19622295 0.15213935 0.123681016 -0.2363252 -0.15715204 -0.19573495 -0.2684307 -0.04828694 -0.106337786 -0.14207919 0.018795494 0.005166701 0.1293133 -0.054138385 -0.042361315 0.09837971 0.04918992 0.9814776 1.0294086 0.9881321 0.9831942 0.9703232 0.9832527 0.9842553 1.00918 1.0030122 0.9999446 1.0089891 1.049651 0.98636734 1.0137081 1.0376077 1.0438861 -0.03656836 0.009082811 -0.06724128 -0.040743694 -0.015102555 -0.06450464 -0.031460594 0.01977849 -0.028530201 -0.007861901 -0.007476416 0.021048076 -0.032079775 -0.019447818 -0.009846493 0.01569217 0.67640793 0.6960851 0.08704645 1.4792697 0.38530535 -1.0997523 -2.0505788 -1.7195454 -0.53887755 -2.4279656 1.2902153 -0.058282547 -0.3293199 -0.19206227 0.32929736 0.392306 2.5093422 0.992424 1.1617467 3.2453237 1.3596582 2.324684 2.9192743 2.508699 1.7325315 2.3767304 2.5860531 1.8929911 3.5745149 1.4441394 0.8725357 1.4289166 -0.18420027 -0.0002503974 0.004543677 0.26599887 0.066008 -0.040304158 0.048295315 -0.120260626 0.0068326467 -0.16439472 0.20482624 -0.06781732 0.11457396 -0.0729329 0.14667617 -0.026404338 -0.0747599 0.04822192 0.14254259 -0.16241841 -0.018480213 0.14024647 -0.07203792 0.043691054 -0.057602674 0.047719404 0.02980745 0.0869576 0.15387565 -0.18702754 0.12374829 0.0013911275 -0.1398128 -0.07691781 0.08107638 -0.13430162 0.0078032077 0.097500645 -0.1551809 0.0730464 0.08878598 -0.10454854 -0.19814076 -0.041096255 0.06607905 -0.04212778 0.22656362 0.1010008 0.100258 -0.107037395 0.14343336 0.104914196 -0.06369266 -0.20926617 -0.2269464 -0.03494103 0.13854472 -0.0030577073 -0.13164207 -0.03914602 -0.09107792 0.06190503 0.0941702 0.16877492 -0.014211799 -0.011708323 -0.006055971 0.06937891 0.062908545 -0.07807857 -0.0035488615 -0.1581052 0.121513076 -0.17937544 -0.08074362 0.11720541 -0.026993576 0.20949398 0.14625421 0.23829727 -0.17294428 0.1485911 0.018126 0.072325386 -0.027294 0.25542864 0.041944545 0.13460298 -0.05216445 0.06296694 0.21580279 -0.065293804 -0.08618483 0.11255409 0.07179134 0.09871963 0.17916699 -0.010204706 0.024626927 -0.11396132 0.19671264 0.08837586 0.02008666 -0.13282643 -0.15039456 0.052325457 0.08449092 0.020845912 0.10246424 0.09573415 0.11447097 0.07328088 -0.20704931 0.04525499 0.20162056 0.019131452 0.11013676 -0.067025386 0.121355034 -0.03804091 0.051474832 0.17981309 -0.010371006 -0.08024599 0.04151529 -0.06536639 0.0869562 -0.29233488 -0.031011155 0.24419984 -0.067552105 0.06798976 0.05876159 -0.20784512 -0.06708358 0.24301659 -0.092505544 -0.17055404 -0.1123754 -0.04455311 -0.16247535 -0.20037043 0.17679559 -0.19953418 -0.27725422 0.14826371 -0.14762323 -0.09727355 -0.20592132 -0.027278379 -0.17380112 -0.0052102795 0.0036401057 0.11183093 -0.03921557 0.017192999 0.00987096 -0.10640775 -0.047051106 -0.19624442 -0.010377341 0.18759836 -0.009571787 -0.23538062 -0.026881665 0.09034724 -0.06671643 -0.028440516 0.09968603 0.068121485 0.12925398 -0.05233732 0.0380084 0.037952207 -0.043984678 0.0140518 0.13965647 -0.097550645 -0.2552087 -0.017967891 0.06573036 -0.07292428 0.07694541 -0.10053472 0.11313408 0.07760541 0.088560596 0.08993693 -0.02897564 0.10036665 -0.21945304 -0.21297355 -0.08288466 0.1327362 0.104399584 -0.21215288 0.055206936 -0.019517489 -0.10444478 0.07285549 -0.15425554 -0.23101403 -0.0013848842 0.11315706 0.013719083 0.07212403 0.04052369 -0.089358404 0.19775276 -0.12564649 -0.21217549 -0.25790644 0.10324198 -0.0901821 -0.09013545 0.049380552 0.07403427 0.18439728 0.05953048 -0.20490597 -0.09887037 -0.06768307 0.17318903 0.18602166 0.14797509 -0.18938236 0.1824364 0.06682952 -0.05377184 0.04369592 0.045706492 -0.16439135 -0.18114862 -0.1253308 0.012227225 0.059414852 0.014933185 0.030687105 -0.03119387 -0.11115963 0.039615624 0.057979885 -0.007027586 -0.21731922 -0.0679412 0.2711726 -0.13310146 0.089685366 0.16892344 0.17864236 0.17609774 -0.043952234 0.26463914 0.16879064 -0.12733985 -0.059775233 -0.16193445 -0.11711314 -0.2214541 -0.0656402 0.091072954 0.17873174 -0.22658359 0.10909696 -0.11449907 -0.09423913 0.16671504 0.10966251 0.06893486 -0.040581413 -0.17122464 0.14121978 0.0822413 -0.007629559 0.22022164 0.05429152 -0.039211486 0.026318204 0.19381675 -0.24638997 -0.0481096 0.028549798 0.056453343 0.038313974 0.04909931 0.26302043 -0.2719715 -0.04129783 -0.15266636 -0.04209864 -0.08893379 -0.1312089 -0.035683278 -0.2441879 0.10657628 0.17881158 -0.09854017 0.0007018824 0.12055469 -0.008621917 -0.12111284 0.15541485 0.12488706 0.071854986 -0.16040154 0.10890191 -0.009700918 0.04495557 -0.026369873 0.06791069 -0.074045524 0.21007435 -0.21414013 -0.092642255 -0.08827309 0.07772266 0.09061603 0.10375095 -0.0890617 0.1044513 0.03693869 0.020820888 -0.112657584 -0.06889119 0.05397066 -0.0069003543 -0.020079607 -0.050472315 -0.07319077 0.29265592 0.08034701 0.14087482 -0.1498528 0.11795967 0.07169729 0.11548794 0.10651289 -0.09946787 0.30125314 0.04683447 0.03700957 0.04778601 0.09833001 0.13593312 0.10808793 -0.21152036 0.13678399 -0.18532982 -0.09908349 -0.10864088 0.24301082 0.04165559 0.15251796 -0.07764282 0.18929543 -0.21252182 0.05081936 0.061321765 0.09002189 0.060333688 -0.050132144 0.09654229 0.048284248 -0.1804202 -0.1108832 0.056277566 -0.04300474 -0.047036655 -0.056753553 0.08147872 0.14910047 0.18907702 0.17792137 -0.18531522 0.059478376 -0.031164818 0.24216442 -0.12865159 0.1920078 -0.2838468 -0.01573736 0.017449275 0.0055681802 0.24678236 -0.0484889 0.13839173 0.07187802 -0.036195744 0.22864933 0.117113955 -0.032130465 -0.09158335 -0.012130218 -0.07568023 -0.111541495 -0.1777036 -0.0011314513 -0.06876647 0.05947658 -0.10660878 0.059276916 0.25641876 -0.13507438 0.18347807 -0.24203303 -0.11682139 -0.04716538 0.030740492 0.08469535 -0.024500487 0.041296512 0.1715592 -0.026725579 -0.12394865 0.00073505077 0.07397965 -0.13718754 0.0009344904 0.07976807 0.12803565 -0.09198004 0.010101329 -0.21098852 -0.054848827 -0.23802634 0.19149038 0.073006876 0.078074016 0.06618712 -0.005996852 0.022691602 0.12579347 -0.06840352 0.004078159 -0.09055169 -0.058748987 -0.14784177 -0.23314852 0.06250629 0.14163311 -0.003642567 -0.0592426 -0.112649575 -0.22528914 -0.005117157 -0.25592715 -0.024123503 -0.08028814 -0.20535772 0.05602219 -0.24731416 0.13499743 0.10423419 -0.040026125 0.055228923 -0.30228427 0.19322164 -0.11043117 -0.054723363 -0.021928165 -0.07275849 -0.21432416 0.1301049 0.15482248 0.07021771 -0.033941235 -0.09502289 0.038315233 0.21743135 -0.18038402 -0.11003688 0.09779167 -0.12209197 -0.004287344 0.03306363 0.18131073 -0.05965309 -0.08727747 -0.04695281 0.17839052 0.009538232 0.06477057 0.026625678 -0.14771336 -0.20099056 0.103395514 0.07866162 0.010265541 -0.22356682 -0.04503403 0.0062606474 0.054233953 0.25204113 0.1278539 0.039892375 0.07878531 -0.041670155 0.19915044 -0.0372572 -0.086654104 -0.08260012 -0.033470042 0.017804766 0.24895716 0.01676131 -0.05592382 0.14404713 0.16714087 -0.09037209 -0.21951745 0.06507916 -0.007872726 -0.117622994 -0.09317706 0.02302481 -0.13497184 -0.14584437 0.14702146 0.19632228 -0.16252321 0.23619097 0.06580768 0.04589825 0.04590044 0.07417484 0.19261049 0.15661415 -0.26140487 -0.1570777 -0.04804102 0.04775646 -0.14287989 -0.09728212 -0.019803546 0.080648296 -0.06851778 0.22194304 -0.05931624 -0.18527453 0.09918489 0.14682871 -0.13382392 -0.17505948 0.0047666123 0.014540641 -0.05175329 0.13984893 0.06772337 0.004684534 0.08674631 0.15190294 -0.0040657874 0.066373155 0.03875052 0.16300775 -0.04259716 0.02840392 -0.07757599 -0.057858083 -0.062301338 0.08259147 0.004983326 -0.0077171233 -0.10998374 0.11685688 0.22155838 -0.11009494 -0.18563864 -0.07503807 0.12612112 -0.031972904 -0.070036195 -0.020426622 -0.0072396896 0.095454834 0.030554123 0.062816784 0.08029976 0.26154393 -0.034260523 -0.033015613 -0.029600779 -0.12835613 0.093100764 -0.1456787 -0.12688597 -0.21949719 0.23374884 0.05844325 0.009527916 -0.031907603 -0.14974609 0.07539274 -0.106298655 -0.106393225 -0.14108923 -0.10054322 -0.2699029 0.01110397 -0.10069654 0.026258228 0.08104951 -0.21310326 -0.005820345 0.26144138 0.16518697 -0.13848227 0.049698908 0.115920424 -0.1719527 0.20759585 -0.09854879 -0.066886365 0.10283909 0.062393874 0.15755194 0.17728029 -0.056403846 -0.1305817 -0.10598733 0.06894361 0.05063188 -0.038659945 -0.03154006 0.04998658 -0.10578366 0.14676593 0.17627917 -0.0016091535 -0.048140716 0.21650037 0.07087716 0.11840004 0.036007058 0.06877477 0.036432266 0.045441892 -0.24252465 0.0337651 0.0238128 0.2876475 -0.07388978 0.07116118 -0.16824779 0.19049707 -0.19861516 -0.034267116 0.038057078 0.18811558 -0.24738042 -0.19921164 0.18982574 -0.0058715446 -0.046106134 0.053292572 -0.098647326 0.019570313 -0.058218587 -0.07865809 -0.07003588 0.1891811 -0.009851586 -0.11015449 0.18586782 -0.15565105 -0.10024147 0.0048776236 0.086523615 -0.014478928 -0.056073017 -0.21645038 0.058124065 0.022034384 0.14226408 -0.029677631 -0.066592224 0.050590824 0.10011838 -0.19952106 0.12622084 -0.15551056 -0.19107264 -0.07699986 -0.13858718 -0.096546575 0.07514178 -0.020211877 -0.06387096 0.20964998 0.19082054 -0.16578703 -0.015308633 -0.0699964 0.07171144 0.17997886 0.09683743 0.060831733 0.10287338 0.28314078 -0.01489305 -0.18347353 0.23384851 0.003648179 -0.21839762 0.024673097 -0.2582493 -0.01069034 0.117259935 0.07545628 -0.03156729 0.13155945 -0.05914881 -0.052180063 -0.056578867 0.053089235 -0.011706186 0.19283462 0.16104607 0.045731507 -0.03125758 0.22023082 0.20478529 0.13314277 -0.017163817 -0.05897112 0.23119561 -0.06914771 0.05311223 -0.050605178 -0.16004024 -0.01487857 0.05933617 0.05692229 0.11822474 0.14718996 -0.078927964 0.022148006 -0.025637195 0.026183885 -0.12446109 0.104820736 0.030134838 -0.045169268 -0.10300785 -0.006026851 -0.12275473 -0.030951956 0.0022869469 0.06448772 0.19998032 -0.14453205 -0.09758629 0.09534638 -0.123381615 -0.014162998 0.08664014 -0.12598854 0.03491553 -0.025835874 0.024160745 -0.061750196 -0.01889427 -0.12723166 0.028205398 0.021241175 -0.025113348 -0.025060697 -0.061738595 0.10405057 0.12608263 -0.2502504 -0.15368378 -0.14053434 0.038322702 -0.0057916134 0.014347581 0.032821897 0.094469674 -0.16593851 0.11676229 0.049270548 0.07337459 -0.23061173 0.0361957 0.15534432 0.18155327 0.040563755 0.23465906 0.03074974 -0.098486446 0.06823633 0.05497773 0.011123027 -0.09859748 -0.10329056 0.25088602 0.14000002 0.10422587 0.016164951 0.028782284 -0.014232084 -0.15622617 0.090290345 -0.043208715 -0.17982613 -0.16385956 -4.551437e-05 0.02407309 -0.024057785 -0.12199957 -0.07556213 0.116847195 0.043256763 0.08802653 0.28727046 0.048678216 0.00064735033 0.025060559 -0.10859664 -0.14916272 -0.23463348 0.13998765 0.21457848 -0.098040685 -0.074064165 -0.12217847 -0.18222554 -0.16348812 -0.11123734 -0.05549953 0.04753652 -0.09624465 -0.15966429 0.09809034 0.017656177 0.057710312 -0.19522712 -0.14721674 0.018861804 0.201396 0.024765166 0.21758947 -0.00035140215 0.04256095 -0.13084374 -0.06560018 -0.04160451 0.101579964 0.10368637 0.21465889 0.14587846 -0.14804278 -0.040323377 -0.22741167 0.10136516 -0.20526886 -0.00900388 -0.21490718 -0.08091934 0.119511545 -0.10934788 0.2674775 -0.043228783 0.055901248 0.06065116 0.073231235 -0.025803348 -0.12831092 0.0069777556 -0.08627331 0.06446505 -0.15584762 0.18983516 0.1612802 -0.06987517 -0.031677887 0.027759107 0.16543873 -0.099212214 0.2324362 0.027056932 -0.19954644 0.07516239 0.07624989 -0.104093164 -0.0748919 0.16130844 -0.05940712 -0.15025775 0.06853625 -0.16115038 -0.08156911 0.004222535 -0.10279848 0.11251538 -0.010706755 0.009602156 -0.023920137 -0.08866738 -0.031360157 -0.25015563 0.0011914321 -0.020782895 0.19902657 -0.14414024 0.00057856657 -0.052400872 0.05997641 -0.045254022 0.07541452 0.18173252 -0.05142357 0.08878181 -0.0815139 0.14295143 0.16085312 -0.032755632 0.12762803 -0.0072187725 -0.051603924 -0.02359874 -0.1317136 0.20070162 0.044910736 0.061800215 0.08496999 -0.032411627 -0.19194871 -0.020385666 -0.06441377 -0.14918923 0.10231298 -0.011106102 -0.1358214 0.101688705 0.036120087 0.011671168 0.1482126 -0.07336566 -0.032790054 -0.08583357 -0.0012253915 -0.20980996 -0.06389249 -0.15811439 0.18451132 -0.01954393 0.13084474 -0.1780305 0.055852067 0.039372813 0.031840973 0.0067424295 0.14737184 0.1274423 -0.11744252 0.090097874 0.043309093 0.059435736 0.04422634 0.14693958 -0.0673764 -0.03987593 -0.074284635 0.020483144 -0.2542579 0.07626732 0.11276073 -0.23393147 -0.11053879 0.026368428 0.014764842 0.03481615 0.17262748 0.18713365 -0.14194384 0.098696 0.27587765 0.1648368 0.1300515 -0.06225868 -0.0078063174 0.075605996 -0.14417864 0.036709562 0.12695222 -0.079309955 0.18983833 -0.08647342 0.009703126 -0.13115549 0.11105479 -0.045669515 0.029908583 -0.014857988 -0.02069947 0.056551665 -0.033025138 0.020168608 -0.102481425 0.098828115 0.14363924 -0.030392654 -0.25541964 -0.06034786 -0.1469366 -0.17948091 0.056921303 -0.06421554 -0.20025353 -0.15180661 0.034134023 -0.028594105 -0.030175911 0.045316014 0.004705096 0.1989993 -0.13445301 0.023859544 0.033369087 0.02051586 0.035531346 -0.08988632 -0.030727882 -0.19019794 -0.088161044 -0.048726957 -0.0083068 0.116341494 0.1823218 -0.08860827 0.10740909 -0.09833809 -0.0010030926 0.0999394 0.1254033 -0.005122833 -0.15319437 -0.17912666 -0.054266606 -0.2507757 0.1999421 0.2444514 -0.047766257 -0.02333863 -0.02086049 -0.09404463 0.01124135 0.13675691 -0.10866969 -0.042658627 0.2135915 -0.16215198 -0.0077478876 -0.11207499 -0.31285104 0.029727697 -0.12195281 0.09446952 0.094770014 -0.028726595 -0.005899919 0.020496326 -0.033252444 0.01451702 0.1080812 0.09948643 0.16195251 -0.09522385 -0.074275404 0.10948532 -0.049338497 -0.26556292 0.036289293 0.050347596 0.09131382 -0.14044714 -0.14085592 -0.16673398 0.106192194 0.06555032 0.10789213 -0.090894744 0.054153886 -0.118964694 0.008747947 -0.07840015 0.20628609 0.21189038 -0.1890866 -0.15491432 -0.12657997 0.10168399 -0.1149683 0.13594308 0.1252089 -0.0041470877 0.14233899 -0.039398585 0.064419 0.04265049 -0.14210026 0.16070625 0.026563184 0.1449503 -0.18625589 0.16457802 -0.008215488 0.06204772 -0.23811398 -0.16662692 0.13388203 -0.17745194 0.024292773 -0.081662476 -0.018169232 -0.14290953 0.019957624 -0.13071062 -0.07868874 -0.0726114 0.1548835 0.1238448 -0.16439182 -0.062357344 0.18149069 0.13529332 -0.053414114 -0.037266657 0.046344634 -0.21755174 -0.11694344 0.1494767 -0.06273635 -0.05177422 -0.024985824 -0.04240426 -0.07128391 0.039044447 -0.24411674 -0.05145675 -0.13954595 -0.10468934 -0.17870948 0.01304044 -0.17218845 -0.08950478 0.2529492 0.06349666 0.0301278 0.16592264 0.29818505 0.03801596 0.06744208 0.0950558 -0.006186215 -0.19135922 -0.24020077 0.22111337 0.100543655 0.20037307 0.060957618 0.18350078 0.033720378 0.02262811 -0.14040576 0.018083822 0.08381442 -0.09302629 0.053832207 0.19524367 0.02090347 0.16155776 0.1680711 -0.15007691 -0.04633686 0.09099418 0.08211866 -0.12159389 -0.078948654 -0.19790141 0.14286937 0.15274373 0.15122096 -0.078387536 -0.18441446 0.04833304 0.118978195 